maxchan,0.0022498583421111107,0.005132746882736683,-0.0036117618437856436,0.002020343439653516,-0.0337536595761776,0.010712193325161934,0.005160462111234665,0.0072256289422512054,-0.02456304244697094,-0.007043047808110714,-0.014089304022490978,0.007266427390277386,0.026061786338686943,0.01530466228723526,0.0019322362495586276,-0.02159387804567814,-0.005203611217439175,-0.03488990664482117,-0.018332216888666153,0.007048541679978371,-0.012761487625539303,0.007438568864017725,0.006428626365959644,0.021609505638480186,0.021703748032450676,0.007657440844923258,-0.006230105180293322,0.008244926109910011,-0.0049841697327792645,-0.01711723580956459,-0.0008514323853887618,-0.0005120682762935758,0.002201640047132969,-0.02248525805771351,0.008331870660185814,-0.018531860783696175,0.003358840476721525,-0.011280861683189869,0.008383833803236485,0.0006062978063710034,-0.007968859747052193,-0.017839113250374794,0.014916983433067799,0.019636530429124832,-0.015158180147409439,0.00029354298021644354,0.01356676034629345,0.02203366905450821,0.012790648266673088,-0.006019811145961285,-0.0114228380843997,-0.026342418044805527,-0.028571289032697678,0.020619379356503487,0.013893341645598412,-0.013970855623483658,-0.0056451838463544846,0.012891351245343685,0.004632130730897188,0.018183477222919464,0.0026981777045875788,-0.009774365462362766,-0.012523619458079338,0.009522829204797745,0.00999964214861393,-0.003759791376069188,0.015033950097858906,-0.024132784456014633,-0.023405680432915688,-0.001161036896519363,0.0027592065744102,-0.01523507572710514,-0.008724145591259003,-0.015169660560786724,-0.0012678198982030153,-0.013935429975390434,-0.009462240152060986,-0.013463836163282394,-0.010211977176368237,-0.001315911067649722,0.010160553269088268,-0.002716648858040571,0.011343787424266338,0.0029605908785015345,-0.0038457883056253195,0.0037472571711987257,-0.0025213395711034536,-0.023712478578090668,-0.0022752447985112667,-0.001228652079589665,-0.030558792874217033,0.011463664472103119,0.021551692858338356,-0.00924233440309763,-0.0001522620441392064,-0.003729923628270626,0.011167999356985092,0.04224542900919914,-0.009329297579824924,-0.011484920978546143
mixedlolitas,0.010448670946061611,-0.009024154394865036,0.0032457492779940367,-0.009836174547672272,-0.011051785200834274,0.007030897308140993,0.013585424982011318,0.004753337241709232,-0.010378078557550907,0.008788622915744781,-0.011523290537297726,0.005107848439365625,0.014752023853361607,0.00556670967489481,-0.00266239489428699,-0.01086614839732647,-0.014822610653936863,-0.021019047126173973,-0.0173892080783844,-0.004932955373078585,-0.006688753608614206,0.00994940847158432,0.008771560154855251,0.004727317485958338,0.014100334607064724,0.005993708968162537,-0.01137686800211668,0.007304683327674866,-0.0005811242153868079,-0.0052336836233735085,8.027128933463246e-05,0.005098357796669006,-0.004461084492504597,-0.0091893021017313,0.0059700580313801765,-0.007999712601304054,0.00024534741532988846,-0.019991356879472733,0.003641485469415784,-0.0038038718048483133,0.010748403146862984,-0.01656663976609707,0.0010204078862443566,0.008702799677848816,0.0072082835249602795,0.005309387110173702,-0.002867723349481821,-0.0006310531171038747,0.01187772024422884,-0.016350403428077698,-0.00145779550075531,-0.016707811504602432,-0.0044404612854123116,0.007099410053342581,0.006816887762397528,-0.000546398398000747,-0.00926249846816063,0.013471201062202454,-0.0017070473404601216,0.010828983038663864,0.007667692843824625,-0.0058528343215584755,-0.0057696267031133175,-0.0011551945935934782,0.005895194597542286,0.009661965072154999,-0.0007982620736584067,-0.018460892140865326,-0.01322194840759039,-0.010321969166398048,-0.01032889261841774,-0.013886713422834873,0.0017350586131215096,0.002849000273272395,-0.0010631856275722384,-0.0073003144934773445,-0.00010310220386600122,-0.013005675747990608,0.0034211124293506145,-0.0008700740290805697,0.011234786361455917,-0.008421659469604492,0.009275518357753754,0.001147811533883214,-0.004559152759611607,-0.0028436873108148575,-0.003136161481961608,-0.014228936284780502,-0.010666202753782272,-0.010501766577363014,-0.011946466751396656,0.004681455437093973,0.011637111194431782,-0.00594752375036478,0.004964411724358797,-0.008498339913785458,0.0072394730523228645,0.011782355606555939,-0.011514779180288315,0.008096234872937202
lolita,0.07644985616207123,-0.02328527346253395,-0.0657896101474762,0.018530510365962982,-0.28118371963500977,0.02162940613925457,0.1373639553785324,0.03916764631867409,-0.17003735899925232,0.040394704788923264,-0.12028475850820541,-0.017873262986540794,0.20389387011528015,0.07944341003894806,-0.025961056351661682,-0.2368781417608261,-0.07256200164556503,-0.2548726201057434,-0.2182738482952118,0.07980223745107651,-0.10088201612234116,0.10394129157066345,0.10751375555992126,0.09753327816724777,0.13328805565834045,0.03857886418700218,-0.0238193329423666,0.03174665570259094,-0.057685308158397675,-0.14895452558994293,-0.004541775677353144,0.06851108372211456,0.07806195318698883,-0.1822451949119568,-0.0016403222689405084,-0.06976233422756195,-0.031273048371076584,-0.17152726650238037,0.10803741961717606,-0.02513083629310131,-0.019419394433498383,-0.1865319013595581,0.07999369502067566,0.19279690086841583,-0.05085473507642746,-0.08342112600803375,0.13477148115634918,0.1207461953163147,0.09613142907619476,-0.12405571341514587,-0.15237367153167725,-0.1745672971010208,-0.2320256531238556,0.20094072818756104,0.13726772367954254,-0.06328778713941574,-0.04693184792995453,0.18216165900230408,-0.029440632089972496,0.10792703926563263,-0.046258293092250824,-0.1470789760351181,-0.08802726119756699,0.03691774234175682,0.129441037774086,0.023028291761875153,0.06024925410747528,-0.19537030160427094,-0.13450458645820618,-0.020155522972345352,-0.04017539322376251,-0.08155221492052078,-0.07613113522529602,-0.0419279970228672,-0.04689350351691246,-0.11011156439781189,-0.07289254665374756,-0.07304106652736664,-0.101573146879673,-0.02896232344210148,0.004978813696652651,-0.022404834628105164,0.1508232057094574,-0.038858771324157715,-0.07436490803956985,-0.002235549036413431,0.042005330324172974,-0.18478143215179443,-0.07168292999267578,-0.086064413189888,-0.27397194504737854,0.031190190464258194,0.15547095239162445,-0.06808004528284073,-0.06073637306690216,-0.007497130427509546,0.16779519617557526,0.33434128761291504,-0.11934959143400192,-0.049365315586328506
countries,0.016904637217521667,0.005085960496217012,-0.02668061852455139,0.011883273720741272,-0.06411649286746979,-0.002886556088924408,0.02377750165760517,0.010695108212530613,-0.04175978899002075,-0.002503027208149433,-0.023788662627339363,-0.00168990611564368,0.03705946356058121,0.0144072650000453,-0.012704906985163689,-0.0534341000020504,-0.00989583320915699,-0.05380267649888992,-0.038378600031137466,0.021853772923350334,-0.027796292677521706,0.015266144648194313,0.025313379243016243,0.034024372696876526,0.04047415778040886,0.003243211191147566,-0.013396691530942917,-0.0043860250152647495,-0.020289717242121696,-0.02951880171895027,-0.00011157970584463328,0.010359592735767365,0.01426401361823082,-0.037160489708185196,-0.0008243161137215793,-0.011870895512402058,0.006636117585003376,-0.04262362793087959,0.0194853562861681,0.0041020275093615055,0.002951910486444831,-0.050590455532073975,0.027625298127532005,0.04133247584104538,-0.0033047948963940144,-0.026825523003935814,0.04004073888063431,0.040065620094537735,0.013429010286927223,-0.03475211560726166,-0.032017599791288376,-0.04898599535226822,-0.057098519057035446,0.045656681060791016,0.04005490615963936,-0.0009645531536079943,-0.020166559144854546,0.05224958807229996,-0.014472904615104198,0.03114248253405094,-0.001069091260433197,-0.02181149832904339,-0.023892976343631744,0.012181869708001614,0.01739322766661644,0.0035515085328370333,0.012843594886362553,-0.049847837537527084,-0.0388389527797699,0.00013528326235245913,-0.009494106285274029,-0.01061178371310234,-0.018198814243078232,-0.019054492935538292,-0.003978488966822624,-0.03588280454277992,-0.011932694353163242,-0.0118247140198946,-0.023207269608974457,-0.010559321381151676,-0.011681778356432915,0.003900758223608136,0.04744128882884979,-0.01473852526396513,-0.027902161702513695,-0.009691444225609303,0.002530252793803811,-0.03377824276685715,-0.005565348081290722,-0.030378958210349083,-0.05584793910384178,0.002889126306399703,0.025135066360235214,-0.010806906037032604,-0.008845715783536434,0.007049815729260445,0.025604648515582085,0.07485807687044144,-0.030260521918535233,-0.014319145120680332
associations,0.032686639577150345,0.0032311505638062954,-0.017659155651926994,0.015423914417624474,-0.06226174160838127,0.006916295737028122,0.026839183643460274,-0.003943642135709524,-0.024431902915239334,-0.003516901284456253,-0.0359375961124897,-0.010211020708084106,0.0376463308930397,0.010575484484434128,-0.017812030389904976,-0.04879248887300491,-0.0031624112743884325,-0.0620557926595211,-0.052201397716999054,0.014766181819140911,-0.01067371480166912,0.028280599042773247,0.026646407321095467,0.027867387980222702,0.02819688245654106,0.003454242367297411,-0.0004102058883290738,0.01411600410938263,-0.022782210260629654,-0.02553873136639595,-0.009197451174259186,0.021938633173704147,0.027279701083898544,-0.05327323451638222,-0.0010899435728788376,-0.02384556643664837,-0.0033074694219976664,-0.02506234124302864,0.013376486487686634,-0.009215125814080238,0.010039029642939568,-0.04641282185912132,0.014834255911409855,0.04237819463014603,-0.011346107348799706,-0.013600935228168964,0.023490481078624725,0.03655175492167473,0.018846914172172546,-0.02883269265294075,-0.021848922595381737,-0.030328897759318352,-0.04987521842122078,0.033019617199897766,0.031110214069485664,-0.010289671830832958,-0.02245655097067356,0.04147500917315483,0.004483253229409456,0.01634000986814499,-0.006503635086119175,-0.03837199881672859,-0.012271604500710964,-0.001182372448965907,0.011423387564718723,0.015381542965769768,0.004401264246553183,-0.041800785809755325,-0.03730105981230736,0.007577104959636927,-0.002258759457617998,-0.006668987218290567,-0.01618509367108345,-0.012249643914401531,-0.007801965344697237,-0.01833478920161724,-0.008838384412229061,-0.029825838282704353,-0.014024007134139538,-0.014348787255585194,-0.005342141725122929,0.001336218905635178,0.028254279866814613,-0.0016062484355643392,-0.015051227994263172,-0.008244778029620647,0.007909608073532581,-0.039968136698007584,-0.011433708481490612,-0.017911357805132866,-0.05232817679643631,0.01647290401160717,0.03420409932732582,-0.011193708516657352,-0.018850276246666908,-0.0015759223606437445,0.025685103610157967,0.07285358756780624,-0.012005805037915707,-0.012330780737102032
child,0.08628072589635849,0.00512944720685482,-0.046660084277391434,0.01680787093937397,-0.30878984928131104,0.02013312466442585,0.12434069812297821,0.03297017887234688,-0.18473929166793823,0.028789673000574112,-0.11801706999540329,-0.020847368985414505,0.21980087459087372,0.0997709184885025,-0.008758122101426125,-0.28411710262298584,-0.06142699718475342,-0.288252055644989,-0.24565300345420837,0.07612837105989456,-0.1300177276134491,0.08802668750286102,0.09238619357347488,0.13856437802314758,0.15319538116455078,0.04661159962415695,-0.033054571598768234,0.015424312092363834,-0.04505935311317444,-0.1416291892528534,-0.004316049627959728,0.06134561449289322,0.0780106708407402,-0.2306438684463501,0.00579873425886035,-0.10160888731479645,-0.024840153753757477,-0.20257115364074707,0.10709698498249054,-0.042567018419504166,0.03192751109600067,-0.2294972985982895,0.12205565720796585,0.22233553230762482,-0.05618444085121155,-0.115057572722435,0.13698862493038177,0.1603090465068817,0.09671646356582642,-0.11597650498151779,-0.149083212018013,-0.20163874328136444,-0.238083153963089,0.21537022292613983,0.1488952934741974,-0.049023572355508804,-0.05957532674074173,0.2015436589717865,-0.008916650898754597,0.12658561766147614,-0.04443306475877762,-0.1643046885728836,-0.08969459682703018,-0.01793505623936653,0.12369153648614883,0.011556295678019524,0.04966086894273758,-0.2228175401687622,-0.14154748618602753,-0.015302564017474651,-0.009483885951340199,-0.07929378747940063,-0.07723265886306763,-0.07558734714984894,-0.07639168947935104,-0.1298191100358963,-0.07480813562870026,-0.10163646936416626,-0.09074127674102783,-0.04917062446475029,-0.0010552871972322464,0.005647700745612383,0.16957387328147888,-0.045799899846315384,-0.0663478896021843,0.01213462557643652,0.05137459188699722,-0.21534669399261475,-0.08326247334480286,-0.09430819004774094,-0.2494117170572281,0.06694506108760834,0.11662520468235016,-0.039178989827632904,-0.1005391851067543,0.0006960201426409185,0.17220713198184967,0.3981059789657593,-0.11116406321525574,-0.04548987001180649
illegal,0.05591454729437828,0.0015941725578159094,-0.0373353473842144,-0.01291017234325409,-0.1846645474433899,0.025731176137924194,0.06867638230323792,0.017120789736509323,-0.10240738093852997,0.017680712044239044,-0.07929559797048569,-0.02290884405374527,0.13884247839450836,0.0616016611456871,-0.00011475135397631675,-0.15768827497959137,-0.055494025349617004,-0.179489403963089,-0.1661468893289566,0.04476594924926758,-0.07703202962875366,0.07900342345237732,0.04981183260679245,0.08325372636318207,0.11194499582052231,0.022818075492978096,-0.039042532444000244,0.008105547167360783,-0.03768879547715187,-0.11051952838897705,-0.0024805471766740084,0.04996863007545471,0.05029749870300293,-0.15659965574741364,-0.006492770276963711,-0.046108707785606384,-0.009534134529531002,-0.1274738758802414,0.08557574450969696,0.002833995269611478,0.013579248450696468,-0.12016449868679047,0.09860685467720032,0.14500270783901215,-0.041637156158685684,-0.07423390448093414,0.0874694213271141,0.10707368701696396,0.06952933967113495,-0.06782470643520355,-0.09495210647583008,-0.12434876710176468,-0.16682828962802887,0.1559506356716156,0.08915353566408157,-0.0358542799949646,-0.02524227648973465,0.12295355647802353,-0.0331866592168808,0.06967649608850479,-0.03747231885790825,-0.07960721850395203,-0.06582966446876526,0.0010462255449965596,0.07967481017112732,0.02684130147099495,0.044137485325336456,-0.13565078377723694,-0.08644465357065201,-0.023411700502038002,-0.007263449020683765,-0.04195690527558327,-0.03888234496116638,-0.04730677977204323,-0.04268081858754158,-0.07059460133314133,-0.06111321598291397,-0.07005973160266876,-0.053158435970544815,-0.008427215740084648,0.0010774930706247687,-0.025583084672689438,0.11878230422735214,-0.024052567780017853,-0.04932648688554764,0.0017720914911478758,0.020851310342550278,-0.1393061727285385,-0.0704539492726326,-0.061587829142808914,-0.15903827548027039,0.04194507375359535,0.09242144227027893,-0.017062697559595108,-0.0647711381316185,-0.018366048112511635,0.11424633115530014,0.24469824135303497,-0.08138099312782288,-0.052288416773080826
sticky,0.0616646409034729,0.013218636624515057,-0.05360015109181404,-0.014241453260183334,-0.2361316978931427,0.03082023374736309,0.06481723487377167,0.025393713265657425,-0.12941329181194305,0.007518691476434469,-0.09280015528202057,-0.02222396992146969,0.16277502477169037,0.07127789407968521,0.00543541694059968,-0.18916545808315277,-0.059060610830783844,-0.20150674879550934,-0.18380668759346008,0.06085928529500961,-0.10365761071443558,0.09362642467021942,0.07259892672300339,0.09211017936468124,0.1273186355829239,0.029356729239225388,-0.035742323845624924,0.0075590177439153194,-0.04318032041192055,-0.12041549384593964,0.0026096580550074577,0.05959329754114151,0.07828519493341446,-0.1754041612148285,-0.00676063122227788,-0.05986906215548515,-0.005343710537999868,-0.1407914012670517,0.0926077663898468,-1.553468609927222e-05,0.027606980875134468,-0.15192930400371552,0.10664134472608566,0.1805827021598816,-0.049778297543525696,-0.07696737349033356,0.09923822432756424,0.12317410856485367,0.05659612640738487,-0.10185825824737549,-0.09637746214866638,-0.15519946813583374,-0.19897103309631348,0.18016217648983002,0.10259601473808289,-0.039381422102451324,-0.038213539868593216,0.13056594133377075,-0.034854691475629807,0.08584632724523544,-0.04334353283047676,-0.10521574318408966,-0.05233113467693329,0.011158289387822151,0.07696227729320526,0.029929526150226593,0.04867232218384743,-0.16436930000782013,-0.12405230104923248,-0.014268961735069752,-0.016599034890532494,-0.0411030575633049,-0.058717548847198486,-0.03419768437743187,-0.04728168621659279,-0.08237127959728241,-0.07662124931812286,-0.08509892225265503,-0.06773276627063751,-0.019768139347434044,0.0151138911023736,-0.0049863397143781185,0.12196016311645508,-0.038539156317710876,-0.042253535240888596,0.0019684152211993933,0.009085901081562042,-0.15749487280845642,-0.07757753878831863,-0.09274164587259293,-0.18778643012046814,0.0448092520236969,0.09795621782541275,-0.028230106458067894,-0.07403703778982162,-0.014049086719751358,0.1392095535993576,0.2881276607513428,-0.09006716310977936,-0.047447569668293
stronghold,0.037379201501607895,-0.007625643629580736,-0.03734831511974335,0.005343273747712374,-0.16084074974060059,0.02706410177052021,0.06517181545495987,0.005898766219615936,-0.09909245371818542,0.0211287010461092,-0.08616408705711365,-0.010780665092170238,0.11960215866565704,0.04813232645392418,-0.0008283102652058005,-0.1341807097196579,-0.05117158219218254,-0.1588936597108841,-0.13065657019615173,0.05799596756696701,-0.07569558173418045,0.07327393442392349,0.04314461350440979,0.07841486483812332,0.09829230606555939,0.013046830892562866,-0.02407715655863285,0.022644679993391037,-0.023626720532774925,-0.10486065596342087,-0.011605188250541687,0.041160594671964645,0.04200674593448639,-0.13894151151180267,0.010793537832796574,-0.037027329206466675,0.0022026419173926115,-0.11112252622842789,0.056824278086423874,0.0030379544477909803,0.004178204573690891,-0.1063300371170044,0.08604301512241364,0.11787474900484085,-0.055013932287693024,-0.0707990974187851,0.06626608967781067,0.08049400895833969,0.0617736391723156,-0.06119019165635109,-0.07352150976657867,-0.10306818783283234,-0.126310795545578,0.1218448132276535,0.0725327655673027,-0.02402806468307972,-0.03336440771818161,0.09404422342777252,-0.014297807589173317,0.07128638029098511,-0.014434423297643661,-0.06450140476226807,-0.05553597956895828,0.011207329109311104,0.07487685233354568,0.024323664605617523,0.04359405115246773,-0.116671621799469,-0.0803375318646431,-0.02284528873860836,-0.014782764948904514,-0.043040674179792404,-0.045888300985097885,-0.04366983845829964,-0.03353727236390114,-0.06478697806596756,-0.050903283059597015,-0.04413600638508797,-0.042417723685503006,-0.012612614780664444,-0.013003384694457054,-0.006529638078063726,0.09610077738761902,-0.03494136780500412,-0.03126131743192673,-0.0002902550040744245,0.008451888337731361,-0.12847255170345306,-0.06911743432283401,-0.06413201242685318,-0.15747877955436707,0.03508912771940231,0.07398159056901932,-0.01203659176826477,-0.04383601248264313,-0.005214584991335869,0.09456325322389603,0.1983279287815094,-0.07218153029680252,-0.03170205280184746
lola,0.07119236886501312,-0.047254227101802826,-0.07801476866006851,0.02551356330513954,-0.30263641476631165,0.03379237279295921,0.1372501254081726,0.026750972494482994,-0.17885257303714752,0.028360242024064064,-0.11726565659046173,-0.026046987622976303,0.20298947393894196,0.09724603593349457,-0.031277019530534744,-0.25020959973335266,-0.06506331264972687,-0.2555026710033417,-0.23969590663909912,0.07648826390504837,-0.08783245831727982,0.11288922280073166,0.11008214950561523,0.10270499438047409,0.13055558502674103,0.053447991609573364,-0.03187967464327812,0.02535353973507881,-0.06664656102657318,-0.14679959416389465,-0.005167665425688028,0.06590714305639267,0.09009697288274765,-0.19461652636528015,-0.0016129991272464395,-0.07438154518604279,-0.0461234413087368,-0.18915915489196777,0.12005321681499481,-0.026880353689193726,-0.007918186485767365,-0.20380140841007233,0.10877250134944916,0.2039000689983368,-0.06645186245441437,-0.09063588082790375,0.14916151762008667,0.12861056625843048,0.10660660266876221,-0.12520726025104523,-0.16564220190048218,-0.19180846214294434,-0.23876406252384186,0.2158295065164566,0.14852742850780487,-0.05389924719929695,-0.051254305988550186,0.20846907794475555,-0.014512765221297741,0.11182411760091782,-0.06710821390151978,-0.1509874016046524,-0.08320733159780502,0.024161582812666893,0.14038525521755219,0.0207874346524477,0.06802357733249664,-0.2109188288450241,-0.13522791862487793,-0.0336584746837616,-0.04134940356016159,-0.07854034006595612,-0.07486220449209213,-0.0582573302090168,-0.055778779089450836,-0.12407320737838745,-0.08503761887550354,-0.08113036304712296,-0.10261049121618271,-0.02041243389248848,0.008920133113861084,-0.0220083799213171,0.15459737181663513,-0.04034895449876785,-0.07547607272863388,-0.009591403417289257,0.05631769448518753,-0.20539778470993042,-0.08405394852161407,-0.08188772201538086,-0.30973920226097107,0.04088948667049408,0.14632314443588257,-0.06853622198104858,-0.06376253813505173,-0.00902846734970808,0.17286042869091034,0.35318344831466675,-0.11342425644397736,-0.03954517841339111
zoo,0.10883139073848724,-0.012034551240503788,-0.06021372973918915,0.026509307324886322,-0.30658331513404846,0.032286543399095535,0.14330612123012543,0.03835533931851387,-0.16983866691589355,0.04137764498591423,-0.13641999661922455,-0.015544150024652481,0.20199500024318695,0.09785096347332001,-0.03415704891085625,-0.2524870038032532,-0.07005564123392105,-0.26602041721343994,-0.2499181628227234,0.0553177148103714,-0.1208164393901825,0.0890851765871048,0.1157456636428833,0.12414169311523438,0.1553158313035965,0.032899852842092514,-0.05234314873814583,0.022882521152496338,-0.0520746074616909,-0.1484411060810089,-0.006183813791722059,0.05543776974081993,0.09289179742336273,-0.2092062383890152,-0.005960945971310139,-0.08048882335424423,-0.021532675251364708,-0.19605621695518494,0.10282526910305023,-0.032609231770038605,0.01333079393953085,-0.19204574823379517,0.10852270573377609,0.19474244117736816,-0.046419721096754074,-0.1011463850736618,0.13296842575073242,0.13627895712852478,0.10868127644062042,-0.12571226060390472,-0.1603197455406189,-0.19422531127929688,-0.2368844449520111,0.22045695781707764,0.12678216397762299,-0.0399472676217556,-0.059892237186431885,0.20699602365493774,-0.013317976146936417,0.11388667672872543,-0.04211004450917244,-0.1416843682527542,-0.1037779152393341,0.007093816064298153,0.12500503659248352,0.012294347397983074,0.06599974632263184,-0.20581884682178497,-0.14680425822734833,-0.035715699195861816,-0.01620088331401348,-0.08191804587841034,-0.0744175910949707,-0.06628637760877609,-0.055360645055770874,-0.13151390850543976,-0.07020515948534012,-0.10091181844472885,-0.10199040174484253,-0.020005375146865845,0.017181213945150375,-0.0035071654710918665,0.18070049583911896,-0.03125065565109253,-0.08240580558776855,-0.0004575431812554598,0.06791909039020538,-0.18741406500339508,-0.06842612475156784,-0.10036300122737885,-0.28440406918525696,0.04210049659013748,0.14442186057567596,-0.06311497837305069,-0.085261270403862,-0.017203643918037415,0.1800256371498108,0.3748188018798828,-0.12774798274040222,-0.0493709072470665
jblinks,0.10182878375053406,-0.019390806555747986,-0.05398031696677208,0.006350812502205372,-0.32216954231262207,0.006803566124290228,0.1295243799686432,0.037515878677368164,-0.17228403687477112,0.030879752710461617,-0.1278548538684845,-0.03317137062549591,0.2182978391647339,0.09991037845611572,-0.039908718317747116,-0.27655693888664246,-0.055668964982032776,-0.2788406014442444,-0.24848340451717377,0.08430188149213791,-0.1312139630317688,0.09469245374202728,0.11035023629665375,0.12290344387292862,0.16127438843250275,0.058530617505311966,-0.026935039088129997,0.02907203696668148,-0.05594729259610176,-0.14911681413650513,-0.00770357483997941,0.0768793448805809,0.09625588357448578,-0.20737427473068237,0.0035831949207931757,-0.0986296758055687,-0.020651359111070633,-0.19792410731315613,0.12129083275794983,-0.038787104189395905,0.024462558329105377,-0.22552010416984558,0.1246270164847374,0.2219151109457016,-0.06265018880367279,-0.10392741113901138,0.1475343555212021,0.14666646718978882,0.11421499401330948,-0.11171521991491318,-0.1684737503528595,-0.20846982300281525,-0.2547244131565094,0.23403632640838623,0.13390512764453888,-0.05839458480477333,-0.0694819912314415,0.2207605391740799,-0.016360679641366005,0.12114448845386505,-0.05443418771028519,-0.16110940277576447,-0.08549091964960098,-0.004398783203214407,0.12338431179523468,0.00638003833591938,0.046649545431137085,-0.22148093581199646,-0.1367441862821579,-0.003268191125243902,-0.021824348717927933,-0.06919368356466293,-0.08671011030673981,-0.07968558371067047,-0.06998539716005325,-0.12874040007591248,-0.0784812644124031,-0.1081322431564331,-0.1122824028134346,-0.04130933806300163,0.010716934688389301,-0.006140538956969976,0.1792009323835373,-0.04031021147966385,-0.08156100660562515,-0.011623844504356384,0.05172119289636612,-0.199919655919075,-0.08590134978294373,-0.11070703715085983,-0.3031120300292969,0.03812698647379875,0.1333550214767456,-0.05100265517830849,-0.08374951779842377,0.002237186534330249,0.18148821592330933,0.4026293158531189,-0.11113525927066803,-0.0393981970846653
kitty,0.11051148176193237,-0.02026662416756153,-0.05236271396279335,0.025974217802286148,-0.30778512358665466,0.03555949404835701,0.1434924155473709,0.045256003737449646,-0.1876182109117508,0.05383758619427681,-0.1303768754005432,-0.0144247030839324,0.2141021192073822,0.11534464359283447,-0.047629259526729584,-0.27968382835388184,-0.07089968770742416,-0.27119556069374084,-0.24019140005111694,0.06398270279169083,-0.110587939620018,0.10467377305030823,0.12178979814052582,0.12235642224550247,0.14810878038406372,0.05615631863474846,-0.053996454924345016,0.04033529385924339,-0.06448827683925629,-0.15687021613121033,0.0014635998522862792,0.06890527904033661,0.1052519679069519,-0.2079133689403534,0.0076080383732914925,-0.09247392416000366,-0.04554037004709244,-0.19671137630939484,0.1019134595990181,-0.05272919312119484,0.008067721500992775,-0.1995866894721985,0.12694746255874634,0.205625519156456,-0.04611082002520561,-0.08354317396879196,0.15508489310741425,0.1374780237674713,0.10382559895515442,-0.11018901318311691,-0.17123576998710632,-0.20104198157787323,-0.26031196117401123,0.2282746583223343,0.14669501781463623,-0.06393784284591675,-0.06865989416837692,0.20742575824260712,-0.013083362020552158,0.13063515722751617,-0.058917559683322906,-0.14234070479869843,-0.10021113604307175,0.011329306289553642,0.1182703748345375,0.00533068273216486,0.04790542274713516,-0.2209610939025879,-0.13874049484729767,-0.03829899802803993,-0.023431846871972084,-0.0891357883810997,-0.0718492791056633,-0.06304994970560074,-0.04868563264608383,-0.12274770438671112,-0.07586164772510529,-0.09347362071275711,-0.11673517525196075,-0.020080722868442535,0.013765682466328144,-0.009890532121062279,0.17313562333583832,-0.027683395892381668,-0.08211422711610794,-0.01846674084663391,0.07439742237329483,-0.21307100355625153,-0.08357346802949905,-0.09096911549568176,-0.3021153211593628,0.05401874706149101,0.14499890804290771,-0.07498158514499664,-0.07217495888471603,-0.011619468219578266,0.1782872974872589,0.38511818647384644,-0.1202392727136612,-0.06143822520971298
myloveboard,0.1121109127998352,-0.02589688077569008,-0.06650637090206146,0.021746080368757248,-0.33268505334854126,0.020581383258104324,0.13742463290691376,0.02030501887202263,-0.19491282105445862,0.053805310279130936,-0.13915471732616425,-0.031165767461061478,0.24228453636169434,0.11904338747262955,-0.024071024730801582,-0.2909599840641022,-0.06324010342359543,-0.2926182150840759,-0.2683444023132324,0.08670331537723541,-0.13315747678279877,0.10472839325666428,0.12257981300354004,0.14445601403713226,0.17020229995250702,0.04777909442782402,-0.03489382565021515,0.016802839934825897,-0.05804406479001045,-0.16360999643802643,-0.008482305333018303,0.08310719579458237,0.09412941336631775,-0.2175133377313614,0.0006765113212168217,-0.0803915485739708,-0.022946247830986977,-0.21095608174800873,0.13049301505088806,-0.03790947049856186,0.013298762030899525,-0.2415016144514084,0.1136094182729721,0.22613628208637238,-0.06970272958278656,-0.09628304094076157,0.15878582000732422,0.1519845724105835,0.12203431874513626,-0.12285612523555756,-0.18385381996631622,-0.22175955772399902,-0.2641589343547821,0.2445659190416336,0.13948296010494232,-0.06403763592243195,-0.06467489153146744,0.21616490185260773,-0.02250063046813011,0.12885938584804535,-0.06559641659259796,-0.17895759642124176,-0.09991617500782013,-0.006339079700410366,0.13452737033367157,0.010230324231088161,0.055348046123981476,-0.2305154651403427,-0.14587241411209106,-0.009535718709230423,-0.021737022325396538,-0.08182293176651001,-0.08636751025915146,-0.07508286833763123,-0.05440020188689232,-0.12008047848939896,-0.06834078580141068,-0.09778526425361633,-0.11115186661481857,-0.03171227499842644,0.0189221128821373,-0.02453361637890339,0.17822624742984772,-0.03371382877230644,-0.08544363081455231,-0.015213354490697384,0.06403788179159164,-0.2134556770324707,-0.08489325642585754,-0.09652559459209442,-0.3245753049850464,0.045988570898771286,0.16076050698757172,-0.05417434126138687,-0.09059450775384903,0.0006686871056444943,0.18698538839817047,0.414905309677124,-0.13597093522548676,-0.048015039414167404
pedomoms,0.10948823392391205,-0.024032918736338615,-0.0663609504699707,0.008760666474699974,-0.31293725967407227,0.006721551064401865,0.12704572081565857,0.03887917473912239,-0.18727128207683563,0.03576100245118141,-0.1401951164007187,-0.027593480423092842,0.20829665660858154,0.10991004854440689,-0.02942073345184326,-0.2587973475456238,-0.06362636387348175,-0.2743857800960541,-0.23897488415241241,0.07384872436523438,-0.1059923991560936,0.11404245346784592,0.1128547266125679,0.12768001854419708,0.14725816249847412,0.05427766218781471,-0.032799627631902695,0.03284665197134018,-0.06049775332212448,-0.13818307220935822,-0.004519573412835598,0.059639375656843185,0.08038977533578873,-0.2087046205997467,0.0009833251824602485,-0.09467170387506485,-0.026737602427601814,-0.1884087175130844,0.10874403268098831,-0.026584183797240257,0.02174264006316662,-0.20905771851539612,0.12610794603824615,0.2047673612833023,-0.06362571567296982,-0.11340311169624329,0.15242478251457214,0.14794881641864777,0.11332661658525467,-0.12575498223304749,-0.1668315827846527,-0.20737862586975098,-0.2555454969406128,0.213331937789917,0.1356988400220871,-0.06440486013889313,-0.050983015447854996,0.2031259536743164,-0.01614338718354702,0.12034948915243149,-0.04111960530281067,-0.15617342293262482,-0.1038360446691513,-0.013320988044142723,0.12669192254543304,0.007055249065160751,0.059532951563596725,-0.2151309698820114,-0.13370780646800995,-0.02823363058269024,-0.013412225991487503,-0.06685779988765717,-0.08362141996622086,-0.07851158082485199,-0.04678450524806976,-0.1266825646162033,-0.07547520846128464,-0.10059574991464615,-0.10975310951471329,-0.030459119006991386,-0.003349486505612731,-0.0251762792468071,0.16769397258758545,-0.04630373790860176,-0.0782756358385086,0.0013546440750360489,0.05201537162065506,-0.2109251171350479,-0.09280840307474136,-0.09881316125392914,-0.291504442691803,0.04274171590805054,0.12149851769208908,-0.05873853340744972,-0.08625800907611847,-0.005787692964076996,0.17166085541248322,0.38675791025161743,-0.11607686430215836,-0.03774673491716385
toddlers,0.08518137037754059,-0.033354006707668304,-0.0716172605752945,0.009508584626019001,-0.282332181930542,0.021769896149635315,0.1424691379070282,0.030820207670331,-0.1585974097251892,0.03955718129873276,-0.12178965657949448,-0.029463039711117744,0.20305220782756805,0.07896868884563446,-0.036098990589380264,-0.23172126710414886,-0.06396231800317764,-0.2617063820362091,-0.223028302192688,0.0686132088303566,-0.08891591429710388,0.10970911383628845,0.09671848267316818,0.09871837496757507,0.1377066820859909,0.030611978843808174,-0.03875171020627022,0.015330709517002106,-0.06884029507637024,-0.13247033953666687,-0.019055793061852455,0.04641992598772049,0.09654704481363297,-0.200566828250885,0.008372241631150246,-0.09419334679841995,-0.04076153412461281,-0.18360716104507446,0.11568911373615265,-0.024812934920191765,-0.005837961100041866,-0.20030605792999268,0.09109729528427124,0.19545269012451172,-0.06205718591809273,-0.08032455295324326,0.13465553522109985,0.13927671313285828,0.0938166081905365,-0.12418539077043533,-0.15470491349697113,-0.16847637295722961,-0.22534681856632233,0.2091488093137741,0.1346440613269806,-0.062467724084854126,-0.04133620485663414,0.19994515180587769,-0.007654611952602863,0.11889573186635971,-0.05721600726246834,-0.14805789291858673,-0.09217628091573715,0.03255327790975571,0.1223490834236145,0.018950989469885826,0.07058019936084747,-0.1980905532836914,-0.1285664588212967,-0.010935408994555473,-0.04205039143562317,-0.07807745039463043,-0.06083424761891365,-0.05147843807935715,-0.05935491621494293,-0.1183519959449768,-0.07145697623491287,-0.07279200106859207,-0.1029272973537445,-0.017846686765551567,0.00437188008800149,-0.030438000336289406,0.15117870271205902,-0.04185226187109947,-0.07139430940151215,-0.016796011477708817,0.060378413647413254,-0.19908273220062256,-0.06509260088205338,-0.0976502075791359,-0.2760084867477417,0.036376673728227615,0.1360761672258377,-0.07463385909795761,-0.05963171273469925,-0.01920953579246998,0.16554926335811615,0.3489997386932373,-0.10943582653999329,-0.035838738083839417
thumbnailed,0.10210396349430084,-0.020573759451508522,-0.07326674461364746,0.011014723218977451,-0.36628031730651855,0.029988398775458336,0.1453091949224472,0.030399341136217117,-0.20918016135692596,0.03523201122879982,-0.14177297055721283,-0.03838147222995758,0.2583599388599396,0.11668555438518524,-0.048437077552080154,-0.30920079350471497,-0.06623513251543045,-0.3093562722206116,-0.2890596389770508,0.10589520633220673,-0.13515177369117737,0.11065066605806351,0.14141829311847687,0.12980341911315918,0.17077286541461945,0.06830214709043503,-0.040129125118255615,0.03057337924838066,-0.06985139846801758,-0.18340551853179932,-0.003949185833334923,0.09251188486814499,0.09617848694324493,-0.22689583897590637,-0.002449789084494114,-0.09235835820436478,-0.03500126674771309,-0.21153604984283447,0.1307411938905716,-0.03925221785902977,0.010033444501459599,-0.25264444947242737,0.1266755312681198,0.23835016787052155,-0.07845905423164368,-0.11175816506147385,0.154766246676445,0.15655817091464996,0.1335456520318985,-0.12862633168697357,-0.1897454857826233,-0.24347296357154846,-0.29483962059020996,0.2532760798931122,0.14983227849006653,-0.0764169991016388,-0.05416977033019066,0.25010326504707336,-0.014094807207584381,0.13598792254924774,-0.05852051451802254,-0.17498913407325745,-0.10682029277086258,0.012531527318060398,0.14380310475826263,0.023349134251475334,0.07365986704826355,-0.2429477572441101,-0.170203298330307,-0.010748096741735935,-0.02903941087424755,-0.08139567822217941,-0.09399576485157013,-0.0698460191488266,-0.060182441025972366,-0.13032567501068115,-0.09117139875888824,-0.10700241476297379,-0.10724108666181564,-0.031309228390455246,0.021109292283654213,-0.03810875490307808,0.1781453788280487,-0.0399695560336113,-0.09358016401529312,-0.014276965521275997,0.06269143521785736,-0.22454258799552917,-0.08769150078296661,-0.12199271470308304,-0.34027308225631714,0.05340282991528511,0.16950668394565582,-0.07071353495121002,-0.09289399534463882,0.0013010845286771655,0.19728311896324158,0.42567500472068787,-0.14141710102558136,-0.037963733077049255
putler,0.06416775286197662,-0.024296535179018974,-0.046179961413145065,0.0019278066465631127,-0.2204521894454956,0.029587429016828537,0.11222532391548157,0.030879782512784004,-0.13743260502815247,0.020355483517050743,-0.10034500062465668,-0.016620857641100883,0.16873155534267426,0.07266212999820709,-0.020579081028699875,-0.18318288028240204,-0.05087795481085777,-0.20216849446296692,-0.17829491198062897,0.05463872849941254,-0.08455627411603928,0.0899171456694603,0.08505253493785858,0.09344162046909332,0.10633856803178787,0.04217304661870003,-0.017473844811320305,0.02487155981361866,-0.047660574316978455,-0.12311520427465439,0.0038342203479260206,0.06217379868030548,0.07601752877235413,-0.1467164009809494,0.006654445547610521,-0.05444641038775444,-0.02579355239868164,-0.1426061987876892,0.0774155780673027,-0.031446829438209534,-0.004911245312541723,-0.15043002367019653,0.08069849014282227,0.14439427852630615,-0.05104522779583931,-0.053404949605464935,0.11538062244653702,0.09718074649572372,0.08027966320514679,-0.08833520114421844,-0.10611013323068619,-0.1377585381269455,-0.1820552945137024,0.1595097780227661,0.10895875841379166,-0.04681972786784172,-0.04881608858704567,0.15188613533973694,-0.01370514091104269,0.08818518370389938,-0.04422662779688835,-0.11423756182193756,-0.07873795181512833,0.016360191628336906,0.0937851220369339,0.025465290993452072,0.04698466137051582,-0.15645217895507812,-0.12292308360338211,-0.023325515910983086,-0.031478580087423325,-0.05689801275730133,-0.05728832259774208,-0.047495774924755096,-0.03216129541397095,-0.0987796038389206,-0.06265629827976227,-0.07415261119604111,-0.07856088131666183,-0.015425202436745167,-0.004005901049822569,-0.02104208990931511,0.11243990063667297,-0.016782881692051888,-0.05038152262568474,-0.015247184783220291,0.031227389350533485,-0.16027505695819855,-0.06146785989403725,-0.06317555904388428,-0.21891815960407257,0.04100616276264191,0.1069832444190979,-0.05317966639995575,-0.05376170575618744,-0.012272368185222149,0.14054028689861298,0.2707355320453644,-0.09063400328159332,-0.032186150550842285
videos,0.09600232541561127,0.004663514904677868,-0.06487750262022018,0.007445894181728363,-0.35138896107673645,0.0306435264647007,0.08955699950456619,0.02785412035882473,-0.19360215961933136,0.04962807893753052,-0.14828720688819885,-0.004344314336776733,0.2535138428211212,0.0862206220626831,-0.013266791589558125,-0.3073141872882843,-0.10103739798069,-0.29317694902420044,-0.2649608552455902,0.0878586396574974,-0.13433080911636353,0.10702364146709442,0.09655339270830154,0.15040498971939087,0.15299713611602783,0.06916051357984543,-0.061937056481838226,0.0464940220117569,-0.05028581991791725,-0.15995140373706818,0.005981712602078915,0.09974849224090576,0.1150701716542244,-0.24893993139266968,-0.014099851250648499,-0.10582605004310608,-0.023844372481107712,-0.1790633350610733,0.10535793751478195,-0.033094875514507294,0.02284100465476513,-0.2669331133365631,0.12935276329517365,0.2572856545448303,-0.06434059888124466,-0.07847681641578674,0.13144446909427643,0.14015574753284454,0.08767981827259064,-0.15942518413066864,-0.15965226292610168,-0.22491861879825592,-0.2718357443809509,0.20729659497737885,0.1469559669494629,-0.03346645087003708,-0.08317441493272781,0.1952875554561615,-0.017281169071793556,0.11436636745929718,-0.05280327796936035,-0.17729128897190094,-0.07884252816438675,-0.024144016206264496,0.1164890006184578,0.014768670313060284,0.041766829788684845,-0.21869629621505737,-0.19670134782791138,-0.007065803278237581,-0.04587583243846893,-0.09541714191436768,-0.06463770568370819,-0.046284474432468414,-0.0694773867726326,-0.14990514516830444,-0.08927226811647415,-0.10136447101831436,-0.10114102065563202,-0.053570251911878586,0.03302239626646042,-0.00855285208672285,0.17955520749092102,-0.013380716554820538,-0.06614543497562408,-0.022641610354185104,0.045050766319036484,-0.2105560600757599,-0.09393627941608429,-0.08813084661960602,-0.28869545459747314,0.05160706862807274,0.16454048454761505,-0.051470909267663956,-0.09967106580734253,0.0064378175884485245,0.20059561729431152,0.42632922530174255,-0.117167167365551,-0.04567578807473183
little,0.08826695382595062,-0.03351191058754921,-0.06733602285385132,0.009289390407502651,-0.3040705621242523,0.024903088808059692,0.13428367674350739,0.02570151723921299,-0.18492314219474792,0.044393643736839294,-0.13384488224983215,-0.013461673632264137,0.19915270805358887,0.09334825724363327,-0.03612017259001732,-0.2514698803424835,-0.07278675585985184,-0.2622620463371277,-0.23386722803115845,0.07178385555744171,-0.1001812219619751,0.11541379988193512,0.1166219562292099,0.1085846871137619,0.13644489645957947,0.03540078178048134,-0.03941497951745987,0.018856221809983253,-0.07088730484247208,-0.14078864455223083,-0.019304286688566208,0.06269672513008118,0.10106305032968521,-0.19409148395061493,-0.008529872633516788,-0.09150271862745285,-0.04035208374261856,-0.18056312203407288,0.1282416433095932,-0.03219950944185257,-0.01672404631972313,-0.20736540853977203,0.11098204553127289,0.19254882633686066,-0.061014045029878616,-0.09184947609901428,0.130925714969635,0.1455615907907486,0.08840206265449524,-0.1254574954509735,-0.1480923444032669,-0.18420138955116272,-0.2509521245956421,0.2167394906282425,0.15301235020160675,-0.059814952313899994,-0.04990389570593834,0.20512695610523224,-0.019942034035921097,0.10897369682788849,-0.04933604225516319,-0.13726329803466797,-0.09858927875757217,0.036297064274549484,0.13590428233146667,0.027462346479296684,0.06163034215569496,-0.20997920632362366,-0.13851633667945862,-0.03285764530301094,-0.031116312369704247,-0.06823733448982239,-0.06730954349040985,-0.060342080891132355,-0.049828290939331055,-0.12894994020462036,-0.07023661583662033,-0.08720646053552628,-0.1074729636311531,-0.01608436182141304,0.011712975800037384,-0.026209237053990364,0.14708246290683746,-0.036574650555849075,-0.07419230788946152,-0.00748499995097518,0.06229620799422264,-0.2073431760072708,-0.08133115619421005,-0.0836489349603653,-0.29952189326286316,0.039365798234939575,0.14590682089328766,-0.06566353887319565,-0.05874701589345932,-0.02494392730295658,0.17484432458877563,0.3693051040172577,-0.12766198813915253,-0.04630035534501076
privacy,0.11806679517030716,-0.034129757434129715,-0.06940333545207977,0.019957173615694046,-0.29376956820487976,0.03334736078977585,0.1252659261226654,0.02925586700439453,-0.16198186576366425,0.046784937381744385,-0.14302246272563934,-0.015057425945997238,0.1966949701309204,0.10669028759002686,-0.02492254599928856,-0.2474571168422699,-0.06631612777709961,-0.2578529119491577,-0.20406106114387512,0.06723298877477646,-0.09192468225955963,0.13820847868919373,0.11400744318962097,0.11312135308980942,0.1364496499300003,0.042395077645778656,-0.042838506400585175,0.0330461710691452,-0.05982736125588417,-0.1575576663017273,-0.012602399103343487,0.05439654365181923,0.08417379856109619,-0.20264114439487457,0.00655788229778409,-0.06686848402023315,-0.024139324203133583,-0.17817023396492004,0.13323214650154114,-0.025086477398872375,-0.021237073466181755,-0.19756388664245605,0.11978141218423843,0.1841748058795929,-0.0601198785007,-0.07403884083032608,0.13961005210876465,0.11175541579723358,0.10564732551574707,-0.11164264380931854,-0.16216377913951874,-0.18983995914459229,-0.24421653151512146,0.22211115062236786,0.14236024022102356,-0.0654081180691719,-0.06382779777050018,0.1938931792974472,-0.026747558265924454,0.10471466928720474,-0.04082866758108139,-0.13495178520679474,-0.10905128717422485,0.023014767095446587,0.12259847670793533,0.02787349745631218,0.06871894747018814,-0.18438103795051575,-0.1539810299873352,-0.027804400771856308,-0.04788697138428688,-0.06323840469121933,-0.07423584908246994,-0.05418941006064415,-0.04230470210313797,-0.11901450157165527,-0.08289626240730286,-0.07918184995651245,-0.10060019791126251,-0.04031021520495415,0.010812976397573948,-0.034032661467790604,0.15203677117824554,-0.034751132130622864,-0.08667798340320587,-0.002261657500639558,0.0638037919998169,-0.1963084489107132,-0.07510233670473099,-0.10795875638723373,-0.28452226519584656,0.03462431952357292,0.1619064062833786,-0.07675142586231232,-0.06664837896823883,0.000846006500069052,0.16497214138507843,0.3517051041126251,-0.11074492335319519,-0.057137977331876755
rape,0.0915241539478302,-0.00521815475076437,-0.06519347429275513,-0.010104293935000896,-0.2630889415740967,0.019094491377472878,0.1128721535205841,0.012372411787509918,-0.16296689212322235,0.011964905075728893,-0.12729240953922272,-0.027060415595769882,0.19869957864284515,0.1017356738448143,-0.007703688461333513,-0.23508645594120026,-0.052788011729717255,-0.24311035871505737,-0.21942058205604553,0.07864610850811005,-0.10218630731105804,0.11521065980195999,0.0868844985961914,0.1218331903219223,0.15670111775398254,0.03733190521597862,-0.048567526042461395,0.020585237070918083,-0.06166979670524597,-0.15045617520809174,-0.0041361781768500805,0.08740084618330002,0.07190793752670288,-0.21336516737937927,0.0026329506654292345,-0.0679444968700409,-0.009428838267922401,-0.1844206005334854,0.11163266003131866,-0.022016270086169243,0.02182338759303093,-0.17492887377738953,0.13077805936336517,0.20319883525371552,-0.06305305659770966,-0.10079731792211533,0.11792462319135666,0.1536567211151123,0.09778300672769547,-0.09485865384340286,-0.14127106964588165,-0.1852298378944397,-0.21566545963287354,0.2090669870376587,0.12824831902980804,-0.052853602916002274,-0.04871487244963646,0.17834828794002533,-0.018073081970214844,0.09981541335582733,-0.03483254089951515,-0.1325337290763855,-0.07869556546211243,0.015493471175432205,0.12086425721645355,0.03670087456703186,0.051149964332580566,-0.1889013797044754,-0.12077485769987106,-0.004118100740015507,-0.035338565707206726,-0.054900288581848145,-0.051395781338214874,-0.04885978624224663,-0.07008868455886841,-0.10087298601865768,-0.09262637048959732,-0.08897868543863297,-0.07549990713596344,-0.031176339834928513,0.0007585368002764881,-0.02701975218951702,0.16351810097694397,-0.040477026253938675,-0.0590798556804657,-0.013319904915988445,0.03144180774688721,-0.19938935339450836,-0.08995072543621063,-0.09402386099100113,-0.2459625005722046,0.04397885873913765,0.11306498944759369,-0.04472784698009491,-0.07572898268699646,-0.0056386380456388,0.14808286726474762,0.35029423236846924,-0.09560465812683105,-0.060088448226451874
young,0.08563035726547241,-0.046465616673231125,-0.08851398527622223,0.014478768222033978,-0.3286241590976715,0.039918847382068634,0.14169606566429138,0.041946910321712494,-0.1952054798603058,0.030269676819443703,-0.1315111517906189,-0.016706937924027443,0.2282314896583557,0.08753645420074463,-0.044557977467775345,-0.2716999053955078,-0.07131592184305191,-0.2704799473285675,-0.2568279206752777,0.07609735429286957,-0.09673282504081726,0.11174030601978302,0.10994206368923187,0.11970602720975876,0.14403082430362701,0.05117006227374077,-0.02996799908578396,0.04350842162966728,-0.07150628417730331,-0.1546374261379242,-0.0018610450206324458,0.0615919828414917,0.10901966691017151,-0.22181138396263123,-0.001465333392843604,-0.08096449077129364,-0.04235195741057396,-0.197225421667099,0.13089989125728607,-0.01836780644953251,-0.016345134004950523,-0.21332766115665436,0.10728206485509872,0.21044988930225372,-0.06073160469532013,-0.07796381413936615,0.1487751007080078,0.1357860267162323,0.09660106897354126,-0.13321103155612946,-0.16657695174217224,-0.20376084744930267,-0.2658407986164093,0.23105564713478088,0.1481170356273651,-0.05949912965297699,-0.047585248947143555,0.22497105598449707,-0.03634653985500336,0.13459353148937225,-0.06963671743869781,-0.15002304315567017,-0.10355999320745468,0.029639821499586105,0.13023295998573303,0.01567019708454609,0.07291092723608017,-0.22140930593013763,-0.16659508645534515,-0.013077253475785255,-0.04465174302458763,-0.08456719666719437,-0.08253999054431915,-0.061459217220544815,-0.05996447429060936,-0.12949460744857788,-0.08758065104484558,-0.10013608634471893,-0.10778728127479553,-0.02127886936068535,0.015228482894599438,-0.03185180947184563,0.16378575563430786,-0.039978958666324615,-0.07946594804525375,-0.007717438042163849,0.06602923572063446,-0.20584382116794586,-0.07590824365615845,-0.09892429411411285,-0.32998204231262207,0.03896487131714821,0.16076304018497467,-0.06427911669015884,-0.06294337660074234,-0.0027622084598988295,0.1773674488067627,0.38567253947257996,-0.13849768042564392,-0.03541489690542221
pornoslonik,0.04673731327056885,-0.018926845863461494,-0.03450092300772667,0.013791081495583057,-0.15625298023223877,0.00675662187859416,0.06769091635942459,0.009106679819524288,-0.09914564341306686,0.020192647352814674,-0.07531514763832092,-0.021159756928682327,0.11676013469696045,0.04011900722980499,-0.02115996554493904,-0.14911308884620667,-0.04767472296953201,-0.14634108543395996,-0.12095262855291367,0.04631182551383972,-0.0644451379776001,0.050732482224702835,0.05446361377835274,0.0675937756896019,0.0828820988535881,0.03220568969845772,-0.024051455780863762,0.009731377474963665,-0.04185931384563446,-0.09036561101675034,-0.009863726794719696,0.04608190059661865,0.04564262554049492,-0.10665417462587357,0.0002868252049665898,-0.04357105493545532,-0.01770143024623394,-0.09109440445899963,0.05312143266201019,-0.02482168935239315,-0.002385382540524006,-0.11487630754709244,0.06001172214746475,0.11651936918497086,-0.029897216707468033,-0.05192967504262924,0.07085859030485153,0.07713751494884491,0.046961549669504166,-0.06687498092651367,-0.08316030353307724,-0.10046028345823288,-0.12871643900871277,0.11592069268226624,0.07264227420091629,-0.03231903165578842,-0.034015800803899765,0.10173899680376053,-0.00858957041054964,0.05695780739188194,-0.025923727080225945,-0.07561644911766052,-0.03994753211736679,-0.000682797166518867,0.07118193805217743,0.0040273298509418964,0.03032505139708519,-0.11944686621427536,-0.08862056583166122,-0.018646318465471268,-0.02794342301785946,-0.032249584794044495,-0.04817623645067215,-0.03438903018832207,-0.02404908835887909,-0.055965956300497055,-0.03521101176738739,-0.05677877739071846,-0.043789226561784744,-0.01147861871868372,-0.0023557590320706367,-0.013039391487836838,0.09836604446172714,-0.021727509796619415,-0.04691517353057861,0.0014729026006534696,0.03683320805430412,-0.09939230233430862,-0.03461248800158501,-0.04208679869771004,-0.1572718471288681,0.0177408829331398,0.08202783018350601,-0.039519332349300385,-0.04019781947135925,-0.0010007568635046482,0.10211377590894699,0.19621428847312927,-0.06931028515100479,-0.020585114136338234
community,0.08780593425035477,0.013374247588217258,-0.054476626217365265,0.01622999645769596,-0.319614440202713,0.050533100962638855,0.06956581771373749,0.028839701786637306,-0.16270267963409424,0.019312933087348938,-0.13468943536281586,-0.004635014105588198,0.24841193854808807,0.07564174383878708,-0.022821631282567978,-0.270956814289093,-0.09574111551046371,-0.26050782203674316,-0.24342916905879974,0.0861053466796875,-0.1258934736251831,0.09336479008197784,0.07430211454629898,0.1367516815662384,0.11877111345529556,0.05685385316610336,-0.06657437980175018,0.03466029837727547,-0.03901153802871704,-0.16470514237880707,0.00922379083931446,0.09086651355028152,0.10352949053049088,-0.22943978011608124,-0.017774099484086037,-0.08498883992433548,-0.03481541946530342,-0.13623176515102386,0.10653182864189148,-0.04156141355633736,0.01999628357589245,-0.25266164541244507,0.09857959300279617,0.21832917630672455,-0.05724645406007767,-0.05362911522388458,0.12148427963256836,0.11575653403997421,0.07832515984773636,-0.1593869924545288,-0.11579454690217972,-0.19507475197315216,-0.2600090205669403,0.18426021933555603,0.1517634093761444,-0.031727373600006104,-0.06513453274965286,0.17491896450519562,-0.01838703081011772,0.07805414497852325,-0.0629972591996193,-0.16874907910823822,-0.06898680329322815,-0.026880811899900436,0.08923497796058655,0.006932929623872042,0.03795287013053894,-0.19459500908851624,-0.1951238214969635,-0.019679488614201546,-0.023401809856295586,-0.09205736219882965,-0.054924242198467255,-0.04682886600494385,-0.06892527639865875,-0.13453985750675201,-0.07414888590574265,-0.10965985804796219,-0.10508925467729568,-0.049974486231803894,0.047438133507966995,0.007288610562682152,0.16405285894870758,-0.015927519649267197,-0.06585405766963959,-0.029401864856481552,0.02301664650440216,-0.19170421361923218,-0.06121992692351341,-0.06784635037183762,-0.2563817799091339,0.0419161282479763,0.16363708674907684,-0.047250159084796906,-0.08113261312246323,-0.014486981555819511,0.19543121755123138,0.3883303105831146,-0.11889738589525223,-0.02870960719883442
pornography,0.09957962483167648,-0.013475045561790466,-0.05833447724580765,0.007394907996058464,-0.30829960107803345,0.028664056211709976,0.08815106749534607,0.025387302041053772,-0.15782691538333893,0.018909206613898277,-0.13873745501041412,0.005749326664954424,0.23239293694496155,0.08573107421398163,-0.0326416902244091,-0.2390894889831543,-0.07632391899824142,-0.24197572469711304,-0.23799848556518555,0.09403954446315765,-0.10812745243310928,0.0829562321305275,0.0835394486784935,0.1164100393652916,0.1119653657078743,0.04314437881112099,-0.04970329627394676,0.04214709252119064,-0.059121787548065186,-0.15038609504699707,0.02027352713048458,0.08711762726306915,0.1092870905995369,-0.21448653936386108,-0.00629750732332468,-0.06336863338947296,-0.039231978356838226,-0.14281602203845978,0.10630244016647339,-0.029073035344481468,0.00505248736590147,-0.203983873128891,0.11371790617704391,0.19610056281089783,-0.0480569563806057,-0.06950891762971878,0.12426812201738358,0.11067948490381241,0.07962679117918015,-0.14160624146461487,-0.1210382878780365,-0.19603373110294342,-0.2465684562921524,0.1793806105852127,0.14898927509784698,-0.051466766744852066,-0.053604066371917725,0.17839854955673218,-0.029315929859876633,0.09382224082946777,-0.05378519743680954,-0.15031768381595612,-0.06626739352941513,-0.013551542535424232,0.09584327042102814,0.01591094769537449,0.05590156838297844,-0.1871519237756729,-0.16591981053352356,-0.004446073900908232,-0.02062133140861988,-0.062375690788030624,-0.05269279703497887,-0.046950411051511765,-0.045339278876781464,-0.12384680658578873,-0.07431159168481827,-0.0925900861620903,-0.08014027774333954,-0.031709104776382446,0.025469958782196045,-0.014026573859155178,0.15402793884277344,-0.021542999893426895,-0.07256603986024857,-0.020573800429701805,0.03055070899426937,-0.17724211513996124,-0.04849705845117569,-0.07168532907962799,-0.27207809686660767,0.03592583164572716,0.14828722178936005,-0.05827726051211357,-0.07177552580833435,-0.01931874081492424,0.17192672193050385,0.3605935573577881,-0.09581605345010757,-0.04083147272467613
fun,0.11939114332199097,-0.02780255116522312,-0.05806073918938637,0.021476903930306435,-0.28797388076782227,0.0425882451236248,0.12603625655174255,0.03450412303209305,-0.16404442489147186,0.05191479250788689,-0.1341731697320938,-0.007425096817314625,0.19404815137386322,0.10370425879955292,-0.034870512783527374,-0.24128934741020203,-0.04842403531074524,-0.27164894342422485,-0.20764216780662537,0.07606919854879379,-0.08573303371667862,0.12406963109970093,0.09989556670188904,0.12260403484106064,0.16022782027721405,0.04252481460571289,-0.034543201327323914,0.01016587857156992,-0.055521316826343536,-0.15829500555992126,-0.005463463254272938,0.061760205775499344,0.09785182029008865,-0.20438134670257568,-0.007925056852400303,-0.08716250956058502,-0.02498015947639942,-0.16967874765396118,0.11319507658481598,-0.019613074138760567,-0.0149617288261652,-0.2016662210226059,0.10998988151550293,0.1777058243751526,-0.052714213728904724,-0.10367655754089355,0.14036422967910767,0.1190013587474823,0.11265341937541962,-0.11164344847202301,-0.14765849709510803,-0.17395299673080444,-0.22356125712394714,0.20536655187606812,0.13806402683258057,-0.05900410935282707,-0.07720150053501129,0.18307755887508392,-0.017036916688084602,0.10268456488847733,-0.04754183813929558,-0.13131189346313477,-0.10816352069377899,0.010929273441433907,0.11193936318159103,0.024588996544480324,0.05508923903107643,-0.1829758882522583,-0.14958840608596802,-0.011918768286705017,-0.02677001617848873,-0.057136282324790955,-0.06933451443910599,-0.06040322035551071,-0.04091930389404297,-0.11426813900470734,-0.07038751244544983,-0.07282033562660217,-0.09328532218933105,-0.033696167171001434,-0.006359380204230547,-0.028954768553376198,0.1551416665315628,-0.03223852440714836,-0.0761386826634407,-0.0018309660954400897,0.05707191303372383,-0.19448645412921906,-0.06633706390857697,-0.08846378326416016,-0.27891525626182556,0.0410502664744854,0.15273386240005493,-0.06892145425081253,-0.05471012741327286,-0.005606606602668762,0.14307178556919098,0.34142571687698364,-0.12160684913396835,-0.06069905683398247
image,0.12383701652288437,-0.013014048337936401,-0.07253996282815933,0.02274187095463276,-0.35270175337791443,0.014419913291931152,0.1581345647573471,0.029268808662891388,-0.18988001346588135,0.053297124803066254,-0.1580377221107483,-0.04055928811430931,0.2513008415699005,0.10748986154794693,-0.035904038697481155,-0.288266658782959,-0.08297624439001083,-0.29897475242614746,-0.2629040479660034,0.07371196150779724,-0.12256894260644913,0.12118681520223618,0.11536292731761932,0.13246862590312958,0.17403548955917358,0.05675796791911125,-0.04793122038245201,0.01898006908595562,-0.05938829854130745,-0.16293928027153015,0.00743230851367116,0.07388805598020554,0.10850284993648529,-0.2459297478199005,0.004273299593478441,-0.1035451740026474,-0.0319996140897274,-0.21038223803043365,0.1284186989068985,-0.04601172357797623,-0.002701172139495611,-0.24635137617588043,0.1203807070851326,0.24035674333572388,-0.06612421572208405,-0.10672804713249207,0.15278305113315582,0.1515229344367981,0.10854087024927139,-0.12332264333963394,-0.1833914816379547,-0.22502508759498596,-0.27318456768989563,0.2464788258075714,0.16510894894599915,-0.05024918168783188,-0.06682754307985306,0.2263614982366562,-0.017771247774362564,0.13507603108882904,-0.06394146382808685,-0.16954050958156586,-0.10638269782066345,-0.008329927921295166,0.12317033112049103,0.02109951339662075,0.06381738930940628,-0.2236151397228241,-0.16511958837509155,-0.00882111769169569,-0.024850234389305115,-0.09229122847318649,-0.09564676880836487,-0.07433134317398071,-0.06123664975166321,-0.14286786317825317,-0.08556348085403442,-0.10132957994937897,-0.1166737973690033,-0.04059657081961632,-0.0016533412272110581,-0.006672316696494818,0.2022787183523178,-0.03220835328102112,-0.07310052216053009,-0.02130967751145363,0.06072402000427246,-0.23172543942928314,-0.10107459872961044,-0.10111337900161743,-0.31155672669410706,0.03588490933179855,0.16560207307338715,-0.06500285118818283,-0.09942549467086792,0.005733193829655647,0.19779080152511597,0.42184990644454956,-0.12530705332756042,-0.05601975694298744
huge,0.08478458970785141,-0.0041207848116755486,-0.05237610265612602,-0.014367754571139812,-0.2803896963596344,0.04214197024703026,0.10142632573843002,0.017796486616134644,-0.1510275900363922,-0.00034705904545262456,-0.12527869641780853,-0.038101572543382645,0.17937636375427246,0.09701018780469894,-0.01358985248953104,-0.2374798059463501,-0.05738375335931778,-0.23474757373332977,-0.22713832557201385,0.08309012651443481,-0.10805133730173111,0.1190885454416275,0.0727008506655693,0.13412146270275116,0.15427033603191376,0.05009961128234863,-0.05205995589494705,0.031511012464761734,-0.05624496564269066,-0.16253158450126648,-0.0002933321811724454,0.08643866330385208,0.06719788908958435,-0.21886374056339264,0.0008683369378559291,-0.06857095658779144,0.0028248655144125223,-0.16171392798423767,0.1080641895532608,-0.0017031998140737414,0.015374950133264065,-0.17763260006904602,0.13551750779151917,0.2110067456960678,-0.0691140741109848,-0.10198865085840225,0.1354634314775467,0.15064041316509247,0.079201340675354,-0.107662633061409,-0.13939768075942993,-0.1844177395105362,-0.23899883031845093,0.20016689598560333,0.1289125233888626,-0.06660938262939453,-0.04410320520401001,0.17501968145370483,-0.023716894909739494,0.10461995005607605,-0.04862334579229355,-0.11378241330385208,-0.06431995332241058,0.011235365644097328,0.09999505430459976,0.020671121776103973,0.05577977001667023,-0.20916235446929932,-0.12463290244340897,-0.0232036504894495,-0.030774934217333794,-0.04746323451399803,-0.04948139563202858,-0.058034878224134445,-0.07046596705913544,-0.10755549371242523,-0.08899098634719849,-0.07739461213350296,-0.06587131321430206,-0.019039306789636612,-0.017789103090763092,-0.030211376026272774,0.1624528467655182,-0.058428894728422165,-0.0625251978635788,-0.013842077925801277,0.037194497883319855,-0.20849762856960297,-0.10494540631771088,-0.10493620485067368,-0.24569782614707947,0.051678020507097244,0.10867667943239212,-0.029632844030857086,-0.08484916388988495,-0.015019427984952927,0.15272489190101624,0.346045583486557,-0.09136243164539337,-0.06302036345005035
files,0.10125124454498291,-0.014305456541478634,-0.05581070855259895,0.020930886268615723,-0.27192553877830505,0.051091354340314865,0.1167425811290741,0.04875203222036362,-0.1633552461862564,0.03468170017004013,-0.14447620511054993,-0.02265547402203083,0.19138388335704803,0.08445170521736145,-0.026740506291389465,-0.2325994074344635,-0.05337627977132797,-0.23361247777938843,-0.1870337873697281,0.062398649752140045,-0.08850611001253128,0.12865282595157623,0.08836952596902847,0.1066952496767044,0.13713979721069336,0.032058726996183395,-0.0399312824010849,0.015625260770320892,-0.06163012608885765,-0.13892525434494019,-0.02144061215221882,0.058999598026275635,0.0766068622469902,-0.19680257141590118,0.006002513691782951,-0.07757746428251266,-0.014599669724702835,-0.15461891889572144,0.12267205864191055,-0.02624288760125637,-0.00850533414632082,-0.17993220686912537,0.11205348372459412,0.16052120923995972,-0.041117578744888306,-0.09153777360916138,0.1309966892004013,0.10478358715772629,0.09313647449016571,-0.1048775166273117,-0.15132196247577667,-0.16801363229751587,-0.21049563586711884,0.1920022964477539,0.11849559098482132,-0.04343981295824051,-0.0705086812376976,0.17367613315582275,-0.02490435168147087,0.10040838271379471,-0.037365611642599106,-0.12879934906959534,-0.07914409041404724,0.0061105345375835896,0.1162804514169693,0.027832025662064552,0.052060000598430634,-0.18969079852104187,-0.1303047239780426,-0.018839454278349876,-0.036048710346221924,-0.0719401016831398,-0.0661502406001091,-0.035267822444438934,-0.059201013296842575,-0.10891033709049225,-0.07932791113853455,-0.06404537707567215,-0.0908404067158699,-0.028482748195528984,0.00927818939089775,-0.034143831580877304,0.1517895609140396,-0.030126115307211876,-0.06456960737705231,-0.001960561377927661,0.05973886698484421,-0.17972026765346527,-0.055233608931303024,-0.093561090528965,-0.27015334367752075,0.042239654809236526,0.13120608031749725,-0.05739245191216469,-0.049076203256845474,-0.0022255016956478357,0.13794341683387756,0.3144702911376953,-0.11006871610879898,-0.042994994670152664
cute,0.08760948479175568,-0.033525172621011734,-0.06356506049633026,0.02734377793967724,-0.29619771242141724,0.030810648575425148,0.14254461228847504,0.03395288810133934,-0.17424768209457397,0.041368886828422546,-0.12651650607585907,-0.019581172615289688,0.19741477072238922,0.09109250456094742,-0.032667189836502075,-0.24871082603931427,-0.06774717569351196,-0.2671915888786316,-0.22964546084403992,0.08061348646879196,-0.09782592207193375,0.10595408827066422,0.10772674530744553,0.10013855248689651,0.13305135071277618,0.04531553387641907,-0.043570589274168015,0.03474697470664978,-0.0708698108792305,-0.1444852650165558,-0.0015758236404508352,0.05709604173898697,0.09652826935052872,-0.2079351246356964,-0.010470356792211533,-0.07355062663555145,-0.0317612886428833,-0.1885497123003006,0.11622735857963562,-0.03254618123173714,-0.01507070753723383,-0.2043079137802124,0.09498614817857742,0.20497922599315643,-0.06610619276762009,-0.07020268589258194,0.142815500497818,0.1394018977880478,0.08838707953691483,-0.11902657151222229,-0.1500491201877594,-0.19277732074260712,-0.2338268905878067,0.2152838259935379,0.15080738067626953,-0.060439057648181915,-0.0431804284453392,0.1974349319934845,-0.02796684205532074,0.10739771276712418,-0.06549006700515747,-0.15428674221038818,-0.09118478745222092,0.026351910084486008,0.13662812113761902,0.021492280066013336,0.0725640282034874,-0.20349904894828796,-0.1521715223789215,-0.033635713160037994,-0.04234839975833893,-0.07904595136642456,-0.07658945769071579,-0.04823547601699829,-0.04848703369498253,-0.11330702900886536,-0.08624261617660522,-0.07443079352378845,-0.10721112042665482,-0.022850587964057922,0.009483360685408115,-0.019889140501618385,0.14843080937862396,-0.04998891428112984,-0.08183007687330246,-0.01633055880665779,0.046295009553432465,-0.20828621089458466,-0.08304041624069214,-0.0899709090590477,-0.3096749186515808,0.036818698048591614,0.1621837615966797,-0.07536055147647858,-0.052474260330200195,-0.00845308881253004,0.16635267436504364,0.35025638341903687,-0.1310647875070572,-0.04662731662392616
model,0.09096807986497879,-0.03915714472532272,-0.08541747182607651,0.016515398398041725,-0.3250238299369812,0.025613049045205116,0.15599046647548676,0.031199611723423004,-0.1797453612089157,0.03028259053826332,-0.1363540142774582,-0.01899411901831627,0.22015871107578278,0.1026458814740181,-0.03837558999657631,-0.2711256146430969,-0.06988834589719772,-0.27960577607154846,-0.2625501751899719,0.09095767885446548,-0.10878880321979523,0.12581543624401093,0.1198984831571579,0.12571850419044495,0.14822091162204742,0.05858149006962776,-0.03066807985305786,0.04287796467542648,-0.06554080545902252,-0.1558719426393509,-0.003306877100840211,0.07027596980333328,0.10754381120204926,-0.22676053643226624,0.002253843005746603,-0.09854748845100403,-0.03704794868826866,-0.19125273823738098,0.12944887578487396,-0.029544364660978317,-0.0105469711124897,-0.22376476228237152,0.10545630753040314,0.2235783040523529,-0.05768519267439842,-0.08639828115701675,0.15023288130760193,0.14737443625926971,0.11269284784793854,-0.1401749551296234,-0.16246844828128815,-0.20957359671592712,-0.26944780349731445,0.2397572547197342,0.14266261458396912,-0.054513148963451385,-0.05463531240820885,0.22999189794063568,-0.01981152407824993,0.1334107220172882,-0.06784624606370926,-0.1527869999408722,-0.0995124951004982,0.021991798654198647,0.12447952479124069,0.019415445625782013,0.07419368624687195,-0.2285826951265335,-0.15175189077854156,-0.01798333041369915,-0.034992896020412445,-0.07167582213878632,-0.08283152431249619,-0.06720385700464249,-0.04148073121905327,-0.12806446850299835,-0.07593855261802673,-0.09741567820310593,-0.11252450942993164,-0.031106382608413696,0.003280623583123088,-0.029006335884332657,0.1789262890815735,-0.05306614190340042,-0.07847154140472412,-0.006362343672662973,0.06190646067261696,-0.21149300038814545,-0.09382349997758865,-0.09210105985403061,-0.3332892060279846,0.04436016082763672,0.17011037468910217,-0.07535871863365173,-0.06662466377019882,-0.013715652748942375,0.17901651561260223,0.3988034725189209,-0.12038552761077881,-0.053622741252183914
erotic,0.10922970622777939,-0.00996884424239397,-0.05685099959373474,0.007986186072230339,-0.31731098890304565,0.030637286603450775,0.15086625516414642,0.03806138038635254,-0.17950062453746796,0.03336664289236069,-0.12256718426942825,-0.03037329390645027,0.21603627502918243,0.10261763632297516,-0.03208256512880325,-0.26141202449798584,-0.0860949382185936,-0.2757173776626587,-0.22149412333965302,0.07138830423355103,-0.10349050164222717,0.1081145703792572,0.12257229536771774,0.12430255115032196,0.1494036316871643,0.05665348470211029,-0.03688913583755493,0.02552700974047184,-0.05550111085176468,-0.1436118185520172,0.00572891253978014,0.06068059802055359,0.0997040867805481,-0.22452545166015625,0.002552993595600128,-0.08037255704402924,-0.03832993656396866,-0.167206272482872,0.1289936751127243,-0.04776095598936081,-0.012238975614309311,-0.2234702855348587,0.11619655042886734,0.2091771811246872,-0.05326993763446808,-0.08036842197179794,0.15015088021755219,0.11832153797149658,0.08802441507577896,-0.12650910019874573,-0.1627180278301239,-0.1897299885749817,-0.26003703474998474,0.2188684195280075,0.13524693250656128,-0.0641491711139679,-0.07541697472333908,0.1937432885169983,-0.016997691243886948,0.11710239201784134,-0.05431860685348511,-0.15266276895999908,-0.08785548806190491,0.02312335930764675,0.12169837951660156,0.025978052988648415,0.06981739401817322,-0.2055642157793045,-0.1609024703502655,-0.007268252316862345,-0.03939489647746086,-0.07698880881071091,-0.0747174471616745,-0.06787601858377457,-0.05806561931967735,-0.11476079374551773,-0.08959583193063736,-0.10050439089536667,-0.09085054695606232,-0.017711922526359558,-0.00295298476703465,-0.011702140793204308,0.18448200821876526,-0.0464441180229187,-0.07767733186483383,-0.015024485066533089,0.04771080240607262,-0.2110186070203781,-0.08866254985332489,-0.10529353469610214,-0.29891738295555115,0.03706061467528343,0.14759346842765808,-0.07063309848308563,-0.0827912762761116,0.0035516966599971056,0.1645268350839615,0.3869384825229645,-0.12129593640565872,-0.04373493045568466
gallery,0.1003752127289772,-0.02515481598675251,-0.05614842474460602,0.008784599602222443,-0.30554503202438354,0.016794852912425995,0.12649789452552795,0.022730818018317223,-0.18179365992546082,0.04821460694074631,-0.12459032982587814,-0.029117945581674576,0.22092023491859436,0.08419523388147354,-0.03245054930448532,-0.2425667643547058,-0.06922437250614166,-0.2638547718524933,-0.23393909633159637,0.061986472457647324,-0.11933115124702454,0.09180707484483719,0.11716758459806442,0.12210795283317566,0.14127254486083984,0.055574625730514526,-0.04462096840143204,0.020351635292172432,-0.05799627676606178,-0.13416875898838043,0.002351760398596525,0.07116468250751495,0.08271906524896622,-0.19773171842098236,-0.008026930503547192,-0.08631568402051926,-0.03435254842042923,-0.18424871563911438,0.12365233153104782,-0.02565127983689308,0.0002239374298369512,-0.213108628988266,0.09324035048484802,0.20554451644420624,-0.05313078314065933,-0.08118948340415955,0.13860352337360382,0.11757510900497437,0.08709732443094254,-0.11073531955480576,-0.16222040355205536,-0.17534613609313965,-0.25131282210350037,0.2175864577293396,0.1456640660762787,-0.054059948772192,-0.07550811022520065,0.2021932601928711,-0.023952335119247437,0.11519084125757217,-0.03575465828180313,-0.14126183092594147,-0.09828375279903412,0.016274141147732735,0.1065923348069191,0.024479268118739128,0.06338316202163696,-0.2064390629529953,-0.14691248536109924,-0.024649303406476974,-0.014369773678481579,-0.08153669536113739,-0.07991306483745575,-0.06464065611362457,-0.045850969851017,-0.11916498094797134,-0.07314001768827438,-0.09120919555425644,-0.09149889647960663,-0.025619884952902794,0.014848877675831318,-0.005692759063094854,0.1793333888053894,-0.02523374743759632,-0.0652659684419632,-0.01969110779464245,0.05968164652585983,-0.1862679421901703,-0.08303692191839218,-0.0886894017457962,-0.282674640417099,0.03816261515021324,0.15063755214214325,-0.06687109172344208,-0.08086483180522919,0.0038013188168406487,0.16268178820610046,0.377579003572464,-0.12767954170703888,-0.041370097547769547
language,0.10227087140083313,0.010178923606872559,-0.07059963047504425,0.026857608929276466,-0.2977173924446106,0.03609952703118324,0.07985462248325348,0.02484925277531147,-0.14863841235637665,0.02816862054169178,-0.14208631217479706,0.011743342503905296,0.21524791419506073,0.0667310506105423,-0.021139375865459442,-0.24695228040218353,-0.08193342387676239,-0.23079723119735718,-0.23644660413265228,0.07745132595300674,-0.10627881437540054,0.09628868103027344,0.08862947672605515,0.1151047945022583,0.11927065253257751,0.056392572820186615,-0.050616588443517685,0.04162728413939476,-0.04015585780143738,-0.1568218469619751,0.0043457550927996635,0.08595022559165955,0.09252071380615234,-0.20872072875499725,-0.02043840102851391,-0.07261478155851364,-0.041695062071084976,-0.13250118494033813,0.11350373178720474,-0.022429922595620155,0.022577010095119476,-0.2275816649198532,0.1009044200181961,0.19005239009857178,-0.043605074286460876,-0.059828516095876694,0.10898183286190033,0.10353940725326538,0.08170511573553085,-0.13560636341571808,-0.12230426073074341,-0.20144662261009216,-0.23640625178813934,0.17643453180789948,0.1412987858057022,-0.031013494357466698,-0.05814693868160248,0.15304496884346008,-0.00779740558937192,0.0846283957362175,-0.059400249272584915,-0.13986915349960327,-0.05762987956404686,-0.02771090343594551,0.09088325500488281,0.02212798222899437,0.04678010568022728,-0.19212950766086578,-0.16523972153663635,-0.004019781947135925,-0.03582992032170296,-0.06716030091047287,-0.04801465570926666,-0.03186502307653427,-0.056912630796432495,-0.12537802755832672,-0.06445857137441635,-0.09069570153951645,-0.09306251257658005,-0.027701828628778458,0.04039181396365166,-0.016267163679003716,0.165779247879982,-0.02663726732134819,-0.07047445327043533,-0.034901656210422516,0.027490107342600822,-0.15773585438728333,-0.05629950016736984,-0.05580198019742966,-0.2637536823749542,0.04066253826022148,0.14515312016010284,-0.04293623939156532,-0.055272627621889114,-0.010092459619045258,0.16199570894241333,0.34983834624290466,-0.11295125633478165,-0.03780544176697731
pictures,0.0736125186085701,-0.03348938375711441,-0.07682821899652481,0.010189995169639587,-0.3105158507823944,0.040430981665849686,0.14711326360702515,0.04092860221862793,-0.18562619388103485,0.0319027453660965,-0.11248254030942917,-0.01983785256743431,0.19998382031917572,0.08003313094377518,-0.038396939635276794,-0.24001160264015198,-0.07428360730409622,-0.2545676529407501,-0.228917196393013,0.08427757769823074,-0.08947934955358505,0.10825207084417343,0.11538292467594147,0.10146135836839676,0.1323549896478653,0.036961231380701065,-0.04251628369092941,0.02144641801714897,-0.07004381716251373,-0.1598518043756485,-0.00945611484348774,0.052553996443748474,0.0844712108373642,-0.18939095735549927,-0.011511120945215225,-0.09184162318706512,-0.046382226049900055,-0.19064462184906006,0.11946119368076324,-0.019016936421394348,-0.0054409741424024105,-0.1998615264892578,0.09174230694770813,0.20825150609016418,-0.07016845792531967,-0.0761280208826065,0.1358771026134491,0.14417874813079834,0.09279640018939972,-0.11933057010173798,-0.15880724787712097,-0.1870560497045517,-0.22956593334674835,0.222370907664299,0.14136415719985962,-0.060257457196712494,-0.04460958391427994,0.2023058980703354,-0.03220393881201744,0.1121021956205368,-0.06885546445846558,-0.15555095672607422,-0.09095747023820877,0.03691944479942322,0.1377268135547638,0.014971795491874218,0.06345465034246445,-0.21525385975837708,-0.13998083770275116,-0.03022458218038082,-0.03421316668391228,-0.07257133722305298,-0.06636664271354675,-0.0593508705496788,-0.04110533371567726,-0.11443085223436356,-0.07425694167613983,-0.07431120425462723,-0.0921114906668663,-0.030771149322390556,0.01972765475511551,-0.02094833180308342,0.1479080766439438,-0.04769584536552429,-0.07447445392608643,-0.019275367259979248,0.05285022780299187,-0.19600747525691986,-0.07391919195652008,-0.08178285509347916,-0.31304872035980225,0.03572826832532883,0.16457079350948334,-0.06665590405464172,-0.06754005700349808,-0.01782902330160141,0.1706649512052536,0.3574136197566986,-0.12827858328819275,-0.03763779252767563
beautiful,0.08184356242418289,-0.026698268949985504,-0.07210780680179596,0.015911001712083817,-0.2660549283027649,0.01866547390818596,0.12463290244340897,0.03282204642891884,-0.15909287333488464,0.03763624653220177,-0.1142900362610817,-0.018569285050034523,0.19718895852565765,0.07165651768445969,-0.025838762521743774,-0.23482951521873474,-0.07300908863544464,-0.24505150318145752,-0.21801519393920898,0.05830484628677368,-0.08375979214906693,0.09890519082546234,0.09688612073659897,0.1016950011253357,0.1379457265138626,0.043731678277254105,-0.028289031237363815,0.019181320443749428,-0.04950518533587456,-0.13258147239685059,-0.010911399498581886,0.058892376720905304,0.07393701374530792,-0.18316785991191864,0.010103089734911919,-0.07931867241859436,-0.03159720450639725,-0.16845166683197021,0.09915082156658173,-0.02371642366051674,-0.0030773875769227743,-0.1785033792257309,0.1042087972164154,0.1845250129699707,-0.042816828936338425,-0.0790342390537262,0.1298142969608307,0.1276823729276657,0.10397806763648987,-0.10595788061618805,-0.1530923694372177,-0.18164701759815216,-0.22331246733665466,0.19864171743392944,0.13702397048473358,-0.052700065076351166,-0.04765757918357849,0.1958785504102707,-0.021825632080435753,0.10737372934818268,-0.05100605636835098,-0.13781404495239258,-0.07356896996498108,0.033986225724220276,0.11752999573945999,0.019584720954298973,0.06066625937819481,-0.20022858679294586,-0.13579952716827393,-0.028603896498680115,-0.04217403009533882,-0.07903045415878296,-0.06258765608072281,-0.06565124541521072,-0.0465518943965435,-0.11249109357595444,-0.0737181231379509,-0.07095954567193985,-0.09006218612194061,-0.014716901816427708,0.012676737271249294,-0.037248630076646805,0.14027662575244904,-0.036039069294929504,-0.06054544448852539,-0.02195717580616474,0.04408084228634834,-0.1759590208530426,-0.05927571654319763,-0.09315119683742523,-0.27703627943992615,0.04151356965303421,0.1304585337638855,-0.06690407544374466,-0.06427114456892014,-0.010579962283372879,0.15585653483867645,0.33095425367355347,-0.11669358611106873,-0.03286977857351303
nude,0.08950474113225937,-0.03381159529089928,-0.0829329788684845,0.02411184087395668,-0.3289599120616913,0.03026522509753704,0.13856065273284912,0.03874776139855385,-0.19273854792118073,0.04607568681240082,-0.14510372281074524,-0.013552260585129261,0.24291056394577026,0.09484148770570755,-0.03354424983263016,-0.28510621190071106,-0.07473099231719971,-0.29302817583084106,-0.25514814257621765,0.07904237508773804,-0.10841836035251617,0.1210705041885376,0.12820373475551605,0.13832694292068481,0.14251066744327545,0.06390265375375748,-0.04924573749303818,0.034110818058252335,-0.06892585009336472,-0.1646815985441208,0.0032756610307842493,0.08364571630954742,0.1021864116191864,-0.2104329764842987,-0.007215512450784445,-0.0930003747344017,-0.03567086160182953,-0.19142620265483856,0.13342319428920746,-0.020652499049901962,-0.011507279239594936,-0.2275838404893875,0.12721678614616394,0.218650683760643,-0.0727599561214447,-0.08114732801914215,0.14612612128257751,0.15232716500759125,0.11885576695203781,-0.12556618452072144,-0.16757528483867645,-0.20860113203525543,-0.2598767578601837,0.2273864448070526,0.14231345057487488,-0.0687638521194458,-0.054840851575136185,0.22731420397758484,-0.031325384974479675,0.13172589242458344,-0.0648178979754448,-0.16190391778945923,-0.09275665134191513,0.023873822763562202,0.13438084721565247,0.023911384865641594,0.07257390767335892,-0.22525519132614136,-0.15731310844421387,-0.023541031405329704,-0.03990647569298744,-0.08138242363929749,-0.07881397008895874,-0.07481358200311661,-0.05637919157743454,-0.1397041231393814,-0.07924985885620117,-0.08959795534610748,-0.09623125940561295,-0.02875087410211563,0.0010109227150678635,-0.03564729914069176,0.16516366600990295,-0.037500377744436264,-0.07479383796453476,-0.013561006635427475,0.050489962100982666,-0.22387626767158508,-0.07665038853883743,-0.10622356832027435,-0.33706021308898926,0.036944519728422165,0.15815803408622742,-0.06522560864686966,-0.06540436297655106,-0.009915454313158989,0.19208553433418274,0.39171481132507324,-0.14397533237934113,-0.05635344609618187
kidsparty,0.11153902113437653,0.02491753362119198,-0.0496639683842659,-0.0017951891059055924,-0.3459486961364746,0.0578925646841526,0.06980681419372559,0.024212466552853584,-0.17330414056777954,0.03944665938615799,-0.14294841885566711,-0.001549379201605916,0.24727758765220642,0.07111608237028122,-0.019875358790159225,-0.3062247037887573,-0.10521641373634338,-0.26966947317123413,-0.23918627202510834,0.09838718920946121,-0.13852821290493011,0.0819988027215004,0.09080839157104492,0.12836144864559174,0.13649287819862366,0.07011610269546509,-0.06316162645816803,0.04262964427471161,-0.044662222266197205,-0.17562486231327057,0.02478032186627388,0.0797424167394638,0.129333958029747,-0.23403938114643097,-0.025038696825504303,-0.09255185723304749,-0.04494144767522812,-0.15317755937576294,0.10986629128456116,-0.01850247010588646,0.037414781749248505,-0.2610214650630951,0.12233538180589676,0.2539774775505066,-0.06243409216403961,-0.06947299093008041,0.12628282606601715,0.12978212535381317,0.07476917654275894,-0.1648247241973877,-0.1323758363723755,-0.22304591536521912,-0.27306699752807617,0.1943294107913971,0.15161173045635223,-0.024111278355121613,-0.09356257319450378,0.15960881114006042,-0.021481888368725777,0.09440271556377411,-0.056812454015016556,-0.16563734412193298,-0.08635901659727097,-0.026598040014505386,0.09739385545253754,0.02231411263346672,0.04598020389676094,-0.20700186491012573,-0.19757045805454254,-0.0050063361413776875,-0.047975264489650726,-0.10044330358505249,-0.04705347120761871,-0.0464092418551445,-0.06407206505537033,-0.14031338691711426,-0.08135861903429031,-0.11706755310297012,-0.10778620839118958,-0.05761176720261574,0.05547278746962547,0.00030394515488296747,0.18445946276187897,-0.00928238034248352,-0.0667671263217926,-0.016624009236693382,0.01959952712059021,-0.20748287439346313,-0.08746421337127686,-0.0702037364244461,-0.2462923228740692,0.07254485785961151,0.15019798278808594,-0.06486078351736069,-0.09207239747047424,0.009549812413752079,0.19841843843460083,0.3948512673377991,-0.12195808440446854,-0.031596072018146515
darkweb,0.0888756811618805,0.024930784478783607,-0.05814976617693901,-0.009306494146585464,-0.3001272976398468,0.044863104820251465,0.10854379087686539,0.0465020053088665,-0.1804565191268921,0.03290698304772377,-0.13727231323719025,-0.01181002240628004,0.20513129234313965,0.07869631797075272,-0.005088072270154953,-0.2822618782520294,-0.08891929686069489,-0.26219385862350464,-0.24291284382343292,0.08169646561145782,-0.11550172418355942,0.10374751687049866,0.08602069318294525,0.1295737326145172,0.1499759554862976,0.059442706406116486,-0.050240110605955124,0.022611647844314575,-0.05329126492142677,-0.15332068502902985,0.006843406241387129,0.06428486853837967,0.10013028234243393,-0.22753958404064178,-0.008870663121342659,-0.08239872008562088,-0.021930038928985596,-0.1753164380788803,0.11154104024171829,-0.01880105957388878,0.025110626593232155,-0.2289794534444809,0.14170022308826447,0.25459736585617065,-0.07971213757991791,-0.08531655371189117,0.11922397464513779,0.1529206484556198,0.08693210035562515,-0.14159466326236725,-0.14539559185504913,-0.2015382945537567,-0.24825376272201538,0.2091120034456253,0.1429721713066101,-0.034217000007629395,-0.06731012463569641,0.18146106600761414,-0.03288600221276283,0.10221624374389648,-0.03812558203935623,-0.14018197357654572,-0.08061978965997696,-0.010595666244626045,0.09628327935934067,0.030478814616799355,0.06401898711919785,-0.22003839910030365,-0.15756642818450928,-0.013744261115789413,-0.030950896441936493,-0.06745926290750504,-0.06988506764173508,-0.05985232815146446,-0.07776384800672531,-0.1281873881816864,-0.09121553599834442,-0.08796904236078262,-0.09180913120508194,-0.04939574748277664,0.013387653045356274,-0.013228562660515308,0.17866183817386627,-0.028721174225211143,-0.046846795827150345,-0.001982788322493434,0.02752092108130455,-0.21862703561782837,-0.09846760332584381,-0.10027490556240082,-0.23391859233379364,0.06999239325523376,0.1154545322060585,-0.0581691674888134,-0.09475938230752945,-0.0072427536360919476,0.15852749347686768,0.3961522579193115,-0.1098337396979332,-0.0480966791510582
pedoland,0.08099276572465897,0.005851414520293474,-0.06872831284999847,0.014299435541033745,-0.2612810730934143,0.04413618892431259,0.07481376081705093,0.024328339844942093,-0.14755643904209137,0.0167263001203537,-0.1221318319439888,0.007418336812406778,0.20434996485710144,0.07206548750400543,-0.026897812262177467,-0.2292720377445221,-0.07822231948375702,-0.22680728137493134,-0.2134608030319214,0.07667769491672516,-0.10465753823518753,0.0732051357626915,0.08163581788539886,0.10261295735836029,0.10837071388959885,0.032187823206186295,-0.05229944735765457,0.027287546545267105,-0.039031337946653366,-0.13985571265220642,0.007877507247030735,0.07290409505367279,0.08217142522335052,-0.1924160122871399,-0.013059718534350395,-0.07877464592456818,-0.02749028243124485,-0.12382417172193527,0.09049266576766968,-0.02877853251993656,0.005100569687783718,-0.18988066911697388,0.09747884422540665,0.16766194999217987,-0.0496814101934433,-0.07353269308805466,0.10370900481939316,0.09120529145002365,0.06903961300849915,-0.12086529284715652,-0.11686135083436966,-0.17527547478675842,-0.20765994489192963,0.17533180117607117,0.11064822971820831,-0.04086293652653694,-0.04631614312529564,0.15351757407188416,-0.022846490144729614,0.08368097245693207,-0.05852992832660675,-0.14531740546226501,-0.05876800790429115,-0.01018386147916317,0.09350202232599258,0.013212325051426888,0.05065348371863365,-0.17467686533927917,-0.14055459201335907,-0.022200921550393105,-0.03358304500579834,-0.058511342853307724,-0.043680887669324875,-0.029356511309742928,-0.05290570855140686,-0.11901414394378662,-0.04978872463107109,-0.07974256575107574,-0.0900818258523941,-0.023530423641204834,0.03356076031923294,-0.01611947827041149,0.15121033787727356,-0.01594419777393341,-0.06317409873008728,-0.016851045191287994,0.025274021551012993,-0.14512692391872406,-0.03999152407050133,-0.04950407147407532,-0.23219428956508636,0.02218489535152912,0.1308109611272812,-0.04535136744379997,-0.04826926812529564,-0.009912136942148209,0.1572476029396057,0.3146653175354004,-0.0896892175078392,-0.03922417759895325
pedopornography,0.05351250618696213,0.0035733203403651714,-0.05643325299024582,-0.016246015205979347,-0.22428356111049652,0.023157838732004166,0.0720493495464325,0.02376309596002102,-0.12476781755685806,0.003495188895612955,-0.10730458050966263,-0.02438262477517128,0.1406070739030838,0.08255131542682648,-0.012096569873392582,-0.17911311984062195,-0.06396716088056564,-0.1983584314584732,-0.17975667119026184,0.04900064691901207,-0.07706841081380844,0.10152462124824524,0.07593445479869843,0.0889844223856926,0.12746118009090424,0.02936265990138054,-0.048449739813804626,0.005648543126881123,-0.04255850240588188,-0.1222056895494461,-0.01731662079691887,0.07170892506837845,0.06404352933168411,-0.16731643676757812,0.010421846993267536,-0.043342988938093185,0.004125854000449181,-0.14041264355182648,0.09831774979829788,-0.008990765549242496,0.015496538951992989,-0.130911722779274,0.08866260200738907,0.15872956812381744,-0.05861083045601845,-0.08009298890829086,0.09511316567659378,0.12468482553958893,0.07680372893810272,-0.0860217809677124,-0.11027321219444275,-0.14396704733371735,-0.16836971044540405,0.17601278424263,0.09276298433542252,-0.04915383458137512,-0.03018835559487343,0.12948349118232727,-0.03239218890666962,0.07084467262029648,-0.03672933951020241,-0.09785223007202148,-0.058614544570446014,0.002788770478218794,0.09252461045980453,0.028141940012574196,0.04677857086062431,-0.16369681060314178,-0.10557354241609573,-0.011794177815318108,-0.02365334890782833,-0.05086356773972511,-0.04613306000828743,-0.04463083669543266,-0.05123312026262283,-0.08511248975992203,-0.07333629578351974,-0.06571337580680847,-0.059466324746608734,-0.02042974904179573,0.00248028920032084,-0.025405721738934517,0.11276621371507645,-0.029239490628242493,-0.059017688035964966,-0.006531009916216135,0.018443549051880836,-0.1609567552804947,-0.08267240226268768,-0.06731721758842468,-0.19627881050109863,0.03344953432679176,0.10047860443592072,-0.04195420444011688,-0.058538731187582016,-0.013343017548322678,0.1244969293475151,0.2591962516307831,-0.0690329521894455,-0.05029739812016487
california,0.10796093940734863,-0.013547411188483238,-0.06269504874944687,0.011176105588674545,-0.2819192409515381,0.04526448994874954,0.1231432557106018,0.04510775953531265,-0.1608048677444458,0.043869178742170334,-0.14198783040046692,-0.007399272173643112,0.1879653036594391,0.09850774705410004,-0.021202707663178444,-0.21656464040279388,-0.058792829513549805,-0.24814192950725555,-0.19067169725894928,0.054986823350191116,-0.09181768447160721,0.12339316308498383,0.1080985739827156,0.10551810264587402,0.14472420513629913,0.033391211181879044,-0.04498901963233948,0.023016296327114105,-0.057278845459222794,-0.15360751748085022,-0.020791782066226006,0.06724022328853607,0.08798754215240479,-0.19718988239765167,-0.01010115072131157,-0.07922635972499847,-0.010117512196302414,-0.165012925863266,0.11789969354867935,-0.028648747131228447,-0.015290153212845325,-0.19581730663776398,0.11665520817041397,0.1559489667415619,-0.054004814475774765,-0.08502738922834396,0.12467247247695923,0.09515777230262756,0.10047906637191772,-0.10759763419628143,-0.14545473456382751,-0.1735246181488037,-0.20930558443069458,0.18951711058616638,0.12096565216779709,-0.061508797109127045,-0.07121255248785019,0.163943350315094,-0.019180290400981903,0.08864544332027435,-0.04915793240070343,-0.13379144668579102,-0.09760493040084839,0.018230566754937172,0.11167334765195847,0.03601139038801193,0.05457434803247452,-0.16896222531795502,-0.14712747931480408,-0.02247496508061886,-0.03125127777457237,-0.060822904109954834,-0.056033920496702194,-0.05100981518626213,-0.05343199521303177,-0.10193219035863876,-0.08564112335443497,-0.06661204248666763,-0.08028575032949448,-0.022101573646068573,0.002630224684253335,-0.012038529850542545,0.1375577449798584,-0.036447420716285706,-0.07808729261159897,0.0021224075462669134,0.06093169376254082,-0.17686468362808228,-0.05968615785241127,-0.09570544958114624,-0.27667781710624695,0.045677535235881805,0.1402711123228073,-0.07234854996204376,-0.04616451635956764,0.008829106576740742,0.1400751918554306,0.32333990931510925,-0.11568191647529602,-0.0597197525203228
acceptable,0.089115209877491,-0.015978878363966942,-0.06799181550741196,0.005083228461444378,-0.25249749422073364,0.044994235038757324,0.11648447066545486,0.04307711869478226,-0.13732846081256866,0.03869504854083061,-0.12338821589946747,-0.004888199269771576,0.17516601085662842,0.07362832874059677,-0.02003517933189869,-0.22248689830303192,-0.03802553191781044,-0.22831876575946808,-0.17436635494232178,0.04844387248158455,-0.07731914520263672,0.1090969368815422,0.09182288497686386,0.09375665336847305,0.14235374331474304,0.03499235957860947,-0.028153881430625916,0.016669003292918205,-0.06417213380336761,-0.12332985550165176,-0.020095983520150185,0.045920561999082565,0.0890016183257103,-0.16999194025993347,0.009673421271145344,-0.06963487714529037,-0.013178962282836437,-0.15389949083328247,0.11270897835493088,-0.0201095137745142,-0.023259440436959267,-0.1788596510887146,0.09779589623212814,0.1526297926902771,-0.04839589074254036,-0.0793653205037117,0.10853835940361023,0.08960964530706406,0.09574567526578903,-0.10001152753829956,-0.12999625504016876,-0.15575289726257324,-0.20492273569107056,0.17934265732765198,0.11674410104751587,-0.04160754010081291,-0.045449547469615936,0.16119639575481415,-0.018026627600193024,0.10726761817932129,-0.05513916537165642,-0.11121799051761627,-0.08268506824970245,0.02578549273312092,0.10507939010858536,0.029658278450369835,0.04436355084180832,-0.18183332681655884,-0.1145128533244133,-0.020272469148039818,-0.029060667380690575,-0.0658373236656189,-0.07169082760810852,-0.036982301622629166,-0.05040567368268967,-0.10096271336078644,-0.0740082636475563,-0.07424556463956833,-0.0922592431306839,-0.015330539084970951,0.013501085340976715,-0.031598690897226334,0.13225498795509338,-0.0331222265958786,-0.06948676705360413,0.0005623410688713193,0.04515063017606735,-0.18338732421398163,-0.06560543924570084,-0.08183117210865021,-0.2620358467102051,0.04398719221353531,0.11591038852930069,-0.07040423899888992,-0.051846448332071304,-0.0033606819342821836,0.1268424540758133,0.2923758924007416,-0.11258166283369064,-0.03773084282875061
identity,0.10430192947387695,-0.03130508214235306,-0.06125302240252495,0.03244753181934357,-0.2778245806694031,0.05327732861042023,0.10445058345794678,0.02931862697005272,-0.1562628149986267,0.037530116736888885,-0.14664380252361298,-0.007252015173435211,0.180010125041008,0.09926105290651321,-0.026646941900253296,-0.2208366096019745,-0.05345412716269493,-0.24777813255786896,-0.1744791567325592,0.04831799492239952,-0.07240074127912521,0.14180050790309906,0.10738198459148407,0.09886960685253143,0.1351441890001297,0.04730778932571411,-0.050747521221637726,0.019651329144835472,-0.048273127526044846,-0.13007518649101257,-0.003826342523097992,0.044023703783750534,0.09485916793346405,-0.19891825318336487,-3.1940748158376664e-05,-0.05479700490832329,-0.015291796065866947,-0.14011280238628387,0.10895872861146927,-0.02613178826868534,-0.023150965571403503,-0.1898406445980072,0.11389239877462387,0.15382930636405945,-0.040800146758556366,-0.08323169499635696,0.12621353566646576,0.08360834419727325,0.09191927313804626,-0.08894703537225723,-0.13287562131881714,-0.17254887521266937,-0.21656416356563568,0.19579288363456726,0.1235649511218071,-0.06909187138080597,-0.06758908927440643,0.1549263447523117,-0.032295625656843185,0.10115035623311996,-0.05166603624820709,-0.12390299886465073,-0.09187904745340347,0.019950350746512413,0.10502569377422333,0.015872467309236526,0.06550084799528122,-0.16128714382648468,-0.12280251085758209,-0.01803181879222393,-0.03974384069442749,-0.04727734997868538,-0.06808530539274216,-0.0529257096350193,-0.032926879823207855,-0.11039669811725616,-0.06566726416349411,-0.07111743837594986,-0.07429923862218857,-0.02697747014462948,0.00032251342781819403,-0.025818711146712303,0.1498650312423706,-0.04744333401322365,-0.07000149041414261,-0.00619882345199585,0.05917888879776001,-0.1883729249238968,-0.055302783846855164,-0.09481920301914215,-0.27263814210891724,0.028743093833327293,0.14426229894161224,-0.07247219979763031,-0.05718949809670448,0.002218063687905669,0.12736958265304565,0.3003249764442444,-0.1093183383345604,-0.05641436204314232
bug,0.10904299467802048,-0.01973745971918106,-0.049177490174770355,0.02658001519739628,-0.2774289548397064,0.03934613987803459,0.10631739348173141,0.0382244810461998,-0.1538335084915161,0.0537877194583416,-0.13997475802898407,-0.010005421005189419,0.1718665361404419,0.102958545088768,-0.01495259627699852,-0.21306829154491425,-0.05474686622619629,-0.24736288189888,-0.17696541547775269,0.05717100948095322,-0.06528650969266891,0.13096414506435394,0.1002860888838768,0.11163245141506195,0.14526385068893433,0.0356370285153389,-0.05636033043265343,0.009766396135091782,-0.055017437785863876,-0.13785378634929657,-0.027187911793589592,0.04538688808679581,0.08925601094961166,-0.1822243332862854,-0.012945395894348621,-0.06588155031204224,-0.027523083612322807,-0.1478767991065979,0.11838993430137634,-0.01205407828092575,-0.01344248652458191,-0.1813727617263794,0.11712007969617844,0.1577015370130539,-0.0492231659591198,-0.07539673894643784,0.12883245944976807,0.1013202965259552,0.09249737113714218,-0.08931165933609009,-0.15153278410434723,-0.175615593791008,-0.22117634117603302,0.18902438879013062,0.12347952276468277,-0.06295520812273026,-0.07255823165178299,0.17299742996692657,-0.01550866849720478,0.10022509098052979,-0.04293067380785942,-0.1207965835928917,-0.10388664156198502,0.005616424605250359,0.11618629097938538,0.022438935935497284,0.060851916670799255,-0.16800254583358765,-0.1356411725282669,-0.02926449291408062,-0.033063504844903946,-0.0650479644536972,-0.06617224961519241,-0.033393871039152145,-0.03808269277215004,-0.09848087280988693,-0.08561746031045914,-0.0758950412273407,-0.08781583607196808,-0.032365694642066956,-0.004304687026888132,-0.010939131490886211,0.13093549013137817,-0.030673978850245476,-0.06759627163410187,1.266330491489498e-05,0.0509956032037735,-0.18342605233192444,-0.05962947756052017,-0.09347901493310928,-0.25654423236846924,0.025392020121216774,0.12689517438411713,-0.06080907955765724,-0.04964043200016022,-0.012788543477654457,0.14164845645427704,0.2902950346469879,-0.09118060767650604,-0.04447472468018532
documentation,0.11770924180746078,-0.008387555368244648,-0.06460253894329071,0.026342712342739105,-0.2752511203289032,0.04130642116069794,0.10561279952526093,0.03732457756996155,-0.14048245549201965,0.04001699015498161,-0.14572344720363617,-0.014680161140859127,0.18948152661323547,0.09353997558355331,-0.021672165021300316,-0.22286321222782135,-0.05779538303613663,-0.23536337912082672,-0.17883741855621338,0.06889250874519348,-0.07714802026748657,0.13700725138187408,0.1053018718957901,0.09317518770694733,0.13505953550338745,0.035029783844947815,-0.056296076625585556,0.011360795237123966,-0.04871295019984245,-0.14349573850631714,-0.023972589522600174,0.04944198951125145,0.0786919966340065,-0.1972760558128357,-0.01059914380311966,-0.05988018959760666,-0.009274832904338837,-0.15310508012771606,0.11634359508752823,-0.010557048954069614,-0.007636728696525097,-0.19568337500095367,0.11894380301237106,0.14783239364624023,-0.05803150683641434,-0.08308302611112595,0.13334308564662933,0.08511994034051895,0.08722060918807983,-0.1045837327837944,-0.14293505251407623,-0.15332452952861786,-0.21886380016803741,0.18230076134204865,0.11148862540721893,-0.06423348933458328,-0.07433363795280457,0.16739563643932343,-0.025574102997779846,0.09704647213220596,-0.03448057919740677,-0.11894775182008743,-0.09995755553245544,0.011951246298849583,0.10238105803728104,0.03386110067367554,0.05263280123472214,-0.18136148154735565,-0.1278339922428131,-0.0258483923971653,-0.04555736109614372,-0.0531870573759079,-0.0731160119175911,-0.034999869763851166,-0.03727993369102478,-0.10771183669567108,-0.07642444968223572,-0.06770563125610352,-0.08068998903036118,-0.03895175829529762,-0.0022948395926505327,-0.02940918132662773,0.14384545385837555,-0.04538832604885101,-0.06956010311841965,0.0022791619412600994,0.06696908175945282,-0.18529096245765686,-0.07365380227565765,-0.08697228133678436,-0.27295657992362976,0.02755093201994896,0.14816419780254364,-0.05858324095606804,-0.04720287397503853,0.006383118219673634,0.12390471249818802,0.2960977852344513,-0.10814838111400604,-0.06136595457792282
rapidly,0.10510417073965073,-0.027707410976290703,-0.056648947298526764,0.02573184110224247,-0.25983449816703796,0.0304296612739563,0.10777545720338821,0.033777154982089996,-0.14285972714424133,0.036843180656433105,-0.1325237900018692,-0.0074783507734537125,0.1885230988264084,0.08854040503501892,-0.03324076160788536,-0.21820613741874695,-0.047625090926885605,-0.22272846102714539,-0.18850518763065338,0.05381244048476219,-0.07950049638748169,0.12250076234340668,0.10522456467151642,0.09047502279281616,0.12670306861400604,0.03722171112895012,-0.0513056181371212,0.028733940795063972,-0.060077134519815445,-0.13218112289905548,-0.003022631397470832,0.05756061151623726,0.08799362927675247,-0.18922339379787445,0.004702549893409014,-0.06723359227180481,-0.030197640880942345,-0.15271593630313873,0.1038900762796402,-0.021105293184518814,-0.014971425756812096,-0.18189166486263275,0.1027393713593483,0.15857566893100739,-0.04473152011632919,-0.08142058551311493,0.12862911820411682,0.09392508119344711,0.09471588581800461,-0.10253973305225372,-0.14714784920215607,-0.17126691341400146,-0.20509828627109528,0.193199023604393,0.11283567547798157,-0.051974184811115265,-0.06039534881711006,0.15755636990070343,-0.021311264485120773,0.10049988329410553,-0.03227207437157631,-0.11503720283508301,-0.0957908034324646,0.005862928926944733,0.1032935306429863,0.01602531410753727,0.05681142210960388,-0.18238228559494019,-0.1378645896911621,-0.030943511053919792,-0.03791822865605354,-0.053260963410139084,-0.07080335915088654,-0.03472663089632988,-0.04698904976248741,-0.11364249885082245,-0.0759555995464325,-0.06694196909666061,-0.09178711473941803,-0.036683931946754456,0.011210882104933262,-0.017867473885416985,0.13515633344650269,-0.02821035496890545,-0.05989604815840721,-0.007737263105809689,0.05302669107913971,-0.18549536168575287,-0.06745537370443344,-0.08367158472537994,-0.26003384590148926,0.044714394956827164,0.14246821403503418,-0.06632940471172333,-0.05809679254889488,-0.009655236266553402,0.13677631318569183,0.2958238124847412,-0.10296567529439926,-0.04589726775884628
